"[[ -6.03478146e-01  -2.39039092e-01  -1.68565503e+00  -1.81349712e-01
   -2.33949417e+00  -3.33115603e-01  -8.42771005e-01  -1.55190469e+00
   -1.27732465e+00  -8.51013991e-01  -1.06586087e-01   9.00499457e-01
   -3.32191250e-01  -7.68883156e-01   1.45961918e-01  -1.09996583e+00
   -1.38642216e-01  -6.04263514e-02  -9.87688672e-01  -9.60603117e-01
   -6.08478334e-01  -7.27306065e-01  -1.02326963e+00  -1.03634621e+00
   -5.74167052e-01  -2.08468083e-01  -7.69247121e-01  -1.11474687e+00
   -1.57157843e+00  -8.30575844e-01  -7.25262760e-01   5.34090492e-01
   -2.01649946e+00  -4.30839538e-01  -5.31596877e-01   6.98304211e-01
   -3.69952725e-01  -8.21776919e-01  -7.90588252e-01   1.81603340e-01
   -8.85080695e-01  -7.00371572e-02  -1.62012979e+00   6.97141597e-01
    5.70033898e-01  -6.70263847e-01  -2.00726505e-01  -1.13363939e+00
   -1.70311246e+00  -6.36607745e-01  -6.55133791e-02  -5.09819430e-01
   -8.78892562e-01  -1.41600725e+00   6.12481975e-02   3.56845752e-01
   -2.50446893e-01   4.68462019e-01  -5.01250717e-01  -1.65058094e+00
   -7.65684548e-01   4.12397888e-01  -1.34544972e+00  -2.90993988e-01
   -1.48030970e+00  -4.00279723e-01  -1.43635369e-01  -1.75991653e+00
   -3.77566412e-01   1.89806181e-01  -2.87389250e-01   2.16310540e-04
   -1.21859463e+00  -3.87347119e-01  -1.27219542e+00   7.20880475e-01
   -1.73680093e+00  -6.94554843e-01  -6.63684569e-01  -1.89359453e+00
   -8.13497627e-01  -2.38297630e-01   2.34249797e-02   3.57444822e-01
   -8.64752026e-02  -1.17116155e+00   2.93976778e-01   5.84374575e-01
   -5.57185260e-01  -7.65580754e-01  -4.66200410e-01  -1.79731189e-01
    1.04614339e-01   2.94561601e-01  -1.15953276e+00   1.95607987e-01
   -2.74724816e-01  -9.59351143e-01   3.78868393e-01  -2.41233693e+00
    5.71714020e-01  -5.51455654e-01  -8.04538488e-01  -1.37471049e-01
   -8.12024416e-01   1.03614103e+00   1.87668835e-01  -4.70724657e-01
   -1.32084329e+00  -1.25493745e+00  -1.18321687e+00  -5.72558252e-01
   -1.15756021e+00  -2.42132016e-01  -6.63781684e-01  -2.76256860e-01
   -1.18641646e+00  -1.05045324e+00   1.23200796e+00  -1.67978958e+00
   -9.99150462e-01  -7.77988774e-01  -6.78983662e-01  -1.18604312e-01
   -5.37613946e-01   5.87283997e-01   1.09230320e-01  -1.55232612e+00
    3.38891944e-01  -1.31041530e+00  -5.33002315e-01  -5.78352327e-01
   -9.75968413e-01   5.84895514e-01  -1.41267421e+00  -1.85212584e-01
   -1.39263184e+00   6.18863333e-02  -3.58337444e-01   1.60393738e-01
   -1.65567962e+00  -3.76959620e-01  -1.78529477e+00  -1.74410445e+00
    1.23504958e+00  -3.99355168e-01   9.21690118e-01  -7.69817777e-01
    1.20307093e-01   2.89061362e-01  -1.74778299e-01  -1.57096072e-01
    4.26293584e-02  -2.18819150e+00   2.08631479e-01  -4.64331599e-01
    1.14156332e-02  -6.94194560e-01   3.81916686e-01  -1.05649867e+00
   -1.44529803e+00   2.91816099e-01  -5.25081230e-01  -1.76340016e+00
   -8.26801558e-01   1.91934093e-01  -1.94501502e-01   9.71235420e-02
    1.69794505e+00   5.40723851e-01   8.23682625e-01  -1.33630553e+00
   -5.93888050e-01  -3.17351775e-01  -5.71760182e-01  -1.18273043e+00
   -9.66406456e-01  -7.85237750e-01  -1.30551665e+00   3.00953913e-01
    1.21864792e+00  -3.86046034e-01  -1.37121401e-01  -4.96865983e-01
   -3.91362947e-01  -6.72036169e-01  -1.33257962e+00  -4.23773331e-01
   -2.82599665e-02  -2.72421803e-01   4.52985725e-01   3.13457696e-01
   -9.07608349e-01  -7.07307910e-01  -1.11652186e+00   7.12449424e-01
   -3.27468122e-01   3.07907749e-01   2.99534477e-01  -2.91118845e-01]
 [ -5.45750102e-01  -7.29756908e-01   1.13890801e-01   1.36345414e+00
    5.68329324e-01  -7.82657080e-01   3.33394130e-01   9.48386173e-01
   -7.98677192e-01   3.08606862e-01  -1.20699827e+00  -6.64106245e-03
   -2.68939589e-01  -1.07184180e+00  -5.92598859e-01   9.03841491e-01
   -5.34359938e-01  -1.65729258e-01   4.02106235e-01  -6.47836310e-02
    5.99678293e-01   1.64432200e+00  -1.20584075e-01  -8.11267588e-01
   -1.05229283e-01  -3.84347577e-01   5.57573446e-01  -2.24882836e-01
    3.93031769e-01   4.72622897e-01  -2.27661104e-01   4.69011505e-01
   -1.78987072e-01  -1.04692007e+00  -5.17172652e-01  -4.03632551e-01
   -1.45445733e+00   1.19148210e+00  -1.19679171e+00  -2.79218899e-01
   -9.94665414e-01  -7.96005807e-01   2.94695468e-02  -4.91915912e-01
   -2.33420212e-01  -7.10395560e-02  -5.65077086e-01  -2.32972730e-01
    6.01842799e-01  -3.12931654e-01  -3.37511082e-01   2.46520420e-01
    1.73130085e-01   1.92662701e-01  -1.82980687e+00   4.41557724e-02
    4.05664674e-01   1.03041087e-01  -1.30481329e-01   1.04340457e+00
   -5.64483821e-02   6.64787329e-01  -3.08885560e-01  -4.96463745e-01
   -4.99455280e-01  -6.05290041e-01  -5.89991771e-01  -3.42332696e-01
   -1.42595031e-01  -1.26336029e+00  -1.38907660e+00   1.55474187e-01
   -9.10034350e-01  -3.83897536e-01  -7.83445465e-01  -5.25132604e-01
    3.61937698e-01   1.18381321e+00   2.81962156e-01  -5.48958431e-01
    5.97436076e-01  -6.66786773e-01  -1.32732209e+00  -2.17517166e-01
    5.56217300e-01  -1.57161524e-01   3.10910315e-01  -1.10334597e+00
   -6.44986871e-01   4.70746495e-01   6.00903547e-01  -3.46895075e-01
    8.35037490e-01  -1.48151274e+00  -4.55079825e-01   2.70352583e-01
   -6.98744232e-01  -5.05705827e-02   3.02854780e-01  -2.32061127e-01
    3.45771665e-01   4.56946525e-01  -7.32154118e-01  -9.25524837e-02
    1.21287924e-01  -6.04719871e-02  -4.14601214e-01   2.13671983e-01
    5.04426545e-01  -2.28534557e-01   1.85892185e-01  -1.13142409e+00
   -9.59168972e-01   9.57475495e-01  -3.89392571e-01  -2.24359666e-01
    1.12956698e-01  -3.88670669e-01  -4.38295453e-02  -1.77497055e+00
   -2.01031224e-01   1.10495649e+00   2.65882920e-01  -8.10172624e-01
   -6.52082787e-02   3.35911980e-01  -2.78866520e-02   3.96778198e-01
   -4.23437858e-01   5.50799680e-01  -1.54539348e-01  -1.27736503e+00
    1.75482149e-01   2.04239957e-01   5.46759010e-01   1.23117893e-01
    1.89639336e-01   2.66191146e-01   6.24083475e-01  -4.90797860e-01
    1.23515078e-01  -2.06274258e-02   5.63058086e-01   3.30889637e-01
    5.08443486e-01   3.29269630e-01  -3.73886260e-02   9.46128172e-01
   -3.10851798e-01   3.51414942e-01  -1.00154392e+00  -2.12295157e-01
    6.83011198e-01   2.83463934e-01   2.27988779e-02  -3.30705777e-01
   -8.53594543e-01  -2.66119456e-01  -1.02842519e+00   2.00502163e+00
    3.76985094e-01  -1.05098785e+00  -5.25064084e-01  -5.60128352e-01
   -1.46097001e-01  -2.34183703e-01   2.00125151e-01   1.22783963e+00
   -1.59808849e-01  -2.40244373e-01   4.98915370e-01   1.25575168e-01
    6.94113244e-01  -4.69027573e-01   9.29051958e-03  -4.37872120e-02
   -2.77779631e-01  -6.82003416e-01   2.11122529e-01   9.69523319e-01
    1.74627382e-01  -1.00244483e-01   1.92927146e-01   6.05529717e-02
   -6.46674770e-01   3.32889435e-01   1.69381778e-01  -3.84015105e-02
   -2.90415441e-01  -1.50325455e-01   9.53110464e-01   2.12902178e-01
    2.97804435e-01   8.97907464e-01   6.06514317e-01   5.06356355e-01
   -1.56410538e-01   2.73618246e-01  -4.58717533e-01   5.84084401e-01]
 [ -6.33403086e-01   1.13467390e+00   2.67292753e-01  -6.84491676e-01
    4.14878817e-01  -6.77615585e-01  -8.12137982e-01  -1.07340329e+00
    6.14240971e-01   1.08878908e-01   7.59955641e-01  -7.67909724e-01
   -6.04862819e-02  -4.92458022e-01   7.18402871e-01  -4.80246030e-01
    6.96423545e-01  -3.99794241e-01  -5.14721615e-01  -2.97396369e-01
    4.65753102e-01  -8.24197163e-01  -8.31651603e-01  -1.30691999e-01
    3.17387440e-01  -7.84450460e-01  -3.88814443e-01  -3.44417847e-01
   -8.27512832e-01  -6.07746998e-01   9.32099479e-01  -6.42001212e-01
   -2.98715979e-01   5.62526351e-01   2.49749637e-01  -2.16995334e-01
   -2.66330038e-01  -6.74680479e-01   4.43174248e-01   8.71790135e-02
    6.37417886e-01   3.00735918e-01  -4.89702970e-01   3.04100063e-01
    2.26661361e-01  -7.00957326e-01  -3.72999492e-01  -1.10785647e+00
   -9.95991600e-01   2.36430849e-01   8.15027093e-01  -4.42355177e-02
   -2.93576865e-01  -1.26658403e-01   3.07713414e-01  -3.92027188e-01
    7.08644545e-02  -2.22717991e-02  -1.16925894e-01  -1.13450067e+00
   -9.35014831e-01  -4.94145471e-01   1.37805181e-01  -6.08465301e-01
    1.10639735e+00  -1.93890325e-02  -1.12510759e-01  -5.33990066e-01
   -1.39034024e-01   6.39809034e-01  -6.75931807e-01  -5.19028289e-01
   -1.49601816e-01  -1.37843360e-01   1.96497178e-02  -3.82359518e-01
   -1.21704644e+00  -1.60319524e+00  -7.37187531e-01  -2.11937419e-01
   -3.89040923e-01  -5.40560480e-01  -5.24999589e-01   9.27459492e-01
   -9.86679059e-01   2.19200431e-02  -7.61254056e-01   1.08877580e-01
   -7.65631063e-01   7.58039520e-02  -1.28730344e+00  -7.73040692e-01
   -1.61622285e-01   3.75514722e-01  -1.18557952e-01  -5.40013987e-01
    1.54229856e-03   1.27821836e-01   1.86068074e-01   8.51235971e-01
    2.37358757e-01  -9.49184606e-01   5.51971139e-01  -2.13878484e-01
   -1.27351918e+00   2.62049440e-01  -9.24042639e-01   7.74771659e-01
   -5.05220724e-01  -9.69170338e-01  -1.40603474e-02  -1.90149885e-01
    9.65350424e-01   6.42245977e-01  -4.73471712e-01   6.53603526e-02
   -6.09345419e-01  -7.80348820e-01  -2.04566261e-01  -1.31952999e+00
   -4.73263471e-01  -9.03690133e-01  -2.56782830e-01   6.33614043e-01
    5.80938046e-01  -2.28731757e-01   1.03121477e+00  -1.07751450e+00
   -9.17337088e-02  -5.14733270e-01  -1.87738094e-01  -1.12266201e+00
   -5.02402183e-01  -2.20582833e-01  -1.06667389e-01   3.06547852e-01
    1.53743380e+00  -1.72394526e-01  -5.22907618e-01  -3.77460709e-01
   -1.55619767e+00   5.99672601e-01  -1.64500355e+00  -2.70007572e-02
   -1.05804532e+00   1.94888204e-01   3.03902601e-01   7.63851887e-01
    2.65083658e-02  -7.39959352e-01   4.97477680e-01   4.33121128e-01
   -5.68762572e-01  -3.81140562e-01   1.99222662e-01   1.27710284e+00
   -8.89175040e-01  -8.76738176e-01   6.06670364e-01  -1.29724001e+00
    1.09439708e-01   2.82906195e-01  -1.22279034e-01  -7.63563616e-01
   -2.83057599e-01   6.41267245e-01   3.50951125e-01  -8.56174580e-01
   -1.01175106e+00  -4.84425515e-01   3.15782129e-01  -5.06579397e-01
    1.34307520e-01  -3.14694630e-01   5.67819540e-01  -2.33872929e-01
   -4.75164931e-01  -2.85175717e-01  -9.32664764e-01   2.80030086e-01
    6.82532768e-01  -6.37677670e-02   6.66167555e-02  -5.03236525e-01
    1.63722559e+00  -1.93530827e-01   1.94423025e-01  -6.06730923e-02
    4.84531164e-02   2.15028634e-02  -6.47473884e-01   1.15748955e-01
    3.38180715e-01   9.10236063e-02   3.94974262e-01  -5.17211316e-01
   -7.26203839e-01  -3.20644550e-01  -3.27209971e-01  -1.07067323e+00]
 [  5.96709918e-01  -2.28933552e-02   7.76592483e-02  -1.58584394e+00
   -1.85342777e+00  -3.31105939e-01  -2.90119716e-02   1.59286292e-01
    6.40696657e-02   6.72883486e-02  -9.51474135e-01   2.60138281e-01
   -3.81590717e-01   4.24524559e-01  -2.91406904e-01  -2.52737004e-02
   -3.21414345e-01   3.13829894e-01  -1.59223800e-01  -1.48578205e-01
   -1.77720149e+00  -8.00094776e-01   2.70459830e-01   6.34419391e-01
    3.74044205e-01   7.75261072e-01  -4.50431802e-01   4.85408219e-01
    4.43265719e-01   8.23086131e-02   1.94136216e-01   4.83428495e-01
    1.13910274e+00  -9.85224689e-01   3.46377294e-01   2.77387767e-01
   -6.23311254e-01  -8.26311351e-01   1.36944021e+00  -8.82297992e-01
   -6.34642556e-01  -1.63628862e+00  -2.66887409e-01   1.45884505e-01
   -4.91209711e-01   6.29693774e-01   8.34179312e-01  -8.51942051e-01
   -1.78506963e+00   7.09760727e-01  -1.00177146e-01  -1.06498944e-01
   -9.28707273e-01  -6.56704629e-01   3.96776757e-02   7.49003509e-01
   -5.00296778e-02   1.17640035e-01  -4.00647815e-02  -1.48750165e-01
    1.68964557e-01   7.01687533e-03  -9.19863587e-01   1.76884202e-01
   -1.04253396e+00   6.01661163e-01  -1.02645978e-01  -4.81854249e-01
   -2.80242680e-01   5.53963025e-02   8.56229380e-01   9.04354447e-01
    1.42919397e-01   4.97985988e-02  -4.74545172e-01   2.63425020e-01
   -1.94759601e-01  -7.29867931e-01   3.74804194e-03   1.76227208e-02
   -5.27771209e-02  -2.61352885e-01  -7.77140580e-01  -1.09013623e-01
   -9.52376252e-01   7.54144351e-01  -1.09487533e+00   7.71915164e-01
   -1.39397298e+00   4.33527228e-01  -4.70079583e-01   8.62127077e-02
   -3.66450899e-01  -3.79375627e-02  -1.80642866e-03  -6.03730491e-01
   -3.61728602e-01   4.64528572e-01  -7.29661009e-01   9.52523211e-01
    8.41761911e-01  -9.35098633e-01   3.73624910e-01  -9.41173294e-01
   -7.96413455e-01  -4.26738153e-01  -1.93293059e-01   1.36256266e-02
   -4.34397726e-01  -1.02533857e+00  -8.01770613e-01   1.49048273e-02
    2.98359511e-01  -1.37890346e+00  -5.74205480e-01  -1.32637840e-01
    1.03578535e+00   5.54448230e-01  -2.17429065e-02   1.16373746e-01
   -2.35361004e-02  -3.01884939e-01  -1.08797114e+00  -6.06387262e-01
   -6.17856540e-01   2.50340465e-01  -3.70037635e-01  -7.45407839e-01
    1.90699695e-01  -4.04374269e-01   4.98194992e-01   1.55964913e-01
   -1.93822210e-01  -6.54630182e-01   1.60080905e-02  -5.29693318e-01
   -1.16847052e+00  -2.50676717e-01  -4.45957670e-01   3.30602655e-01
   -3.18381611e-01  -6.19179091e-01   2.06633128e-01  -9.74744298e-01
   -7.63405480e-01   9.26776760e-02  -7.82877460e-02  -6.86670160e-01
   -4.52715913e-01  -4.44793752e-02   4.49558242e-01   1.30346320e+00
   -3.37257397e-01  -9.46273519e-01  -6.43341701e-01  -2.67038702e-01
    2.84562961e-02   1.64961984e+00   3.62643680e-01  -8.72186607e-01
   -1.38201520e+00   7.21616252e-01  -3.50745953e-02  -1.29701901e+00
   -2.78242113e-01  -2.78700801e-01  -2.04055470e-02  -1.26781618e+00
    4.46714950e-01   7.35800192e-02  -4.89824677e-01  -4.65859778e-01
    1.05463536e-02   5.49330025e-01   4.74376569e-01   1.26109754e+00
   -5.69939876e-01  -1.91804334e-01   3.53273674e-01  -4.48534152e-01
   -5.88019578e-01  -8.25475735e-01   2.60223662e-01  -1.06977737e+00
   -9.88165604e-01  -1.09922264e+00   9.80327455e-01  -3.46532337e-01
   -1.25787713e+00  -1.10132218e+00   9.30062058e-01   4.89817487e-01
   -2.19916744e-01  -4.63639688e-01  -5.58236626e-01  -3.47791420e-02
    1.24383971e+00   4.63350682e-01  -2.47998944e-01  -1.20782719e+00]
 [ -1.97948931e-01  -1.03380549e+00  -1.54297194e+00   8.90987356e-01
    8.03784502e-01   1.70054612e-01   4.22377352e-01  -1.07565872e+00
    8.77625110e-01  -9.09069305e-01   3.15430782e-01   2.98046196e-02
    4.95084588e-01   9.70303805e-01   1.95690971e-01  -2.23928002e-01
   -1.27857715e+00  -1.20600314e-01  -7.94454352e-01  -4.56208138e-01
   -3.69059889e-01   4.70912273e-01  -3.56127778e-01  -9.81020732e-01
    9.76157724e-02  -3.58056446e-01  -6.38381228e-01   5.52525749e-01
    1.97310239e-01   1.00144904e+00  -1.25181222e+00   9.77268967e-01
   -1.60066288e-01   1.45747868e+00   1.60796815e-03  -4.25791906e-01
    6.74521115e-01  -2.81867710e-02  -4.90971724e-01   3.96495336e-01
    9.05743690e-02   5.54823931e-01   3.45706204e-01  -5.95927398e-01
   -8.08481147e-01   5.71379190e-01  -8.94997894e-01   1.06156795e+00
    1.60442047e-01  -2.75218331e-01   3.28451662e-01  -5.62923063e-02
    8.28460638e-01  -2.23139964e-01   6.94547277e-01  -2.80648249e-01
   -1.62278469e+00  -1.04384886e+00  -9.51658377e-01   2.69507611e-01
    1.12539190e+00  -2.72652445e-01  -6.44348949e-01   3.82777403e-01
    2.99854820e-02  -9.51565181e-02   3.35130705e-01  -4.13788044e-01
   -1.29579088e-01   1.02144252e-01  -2.72162610e-01  -6.16838199e-02
   -2.36175544e-01   1.19856539e+00   1.04284065e+00   3.01720016e-01
   -3.83214408e-01  -6.29920999e-01   7.74016314e-01  -2.77634772e-01
   -2.92919974e-01  -4.55566641e-01  -7.74335817e-01  -6.49138891e-01
    6.25025047e-01   5.11487983e-01   2.25749601e-01   7.31834735e-01
    8.79038438e-01  -4.94077841e-01  -8.01661322e-02   6.31174033e-01
   -9.32931711e-01   1.09209645e+00  -6.98884707e-01  -3.66904543e-02
   -2.68339718e-01  -1.06756675e+00   4.84841210e-01   8.25017214e-02
   -4.95393979e-01   1.98013978e-01  -1.69361189e-01   2.48141777e-01
    7.26171943e-02   1.65822038e-01   8.30956099e-01  -6.43495146e-01
   -6.20803816e-01   6.51051023e-01  -5.15454524e-01   5.97113013e-01
   -1.72228680e-01  -6.18336617e-01  -7.32245195e-01  -3.85513121e-01
   -2.71250465e-01  -9.32078556e-01   1.17315056e-01   4.33766960e-01
    6.45866041e-02  -5.81158222e-01  -5.53571542e-01  -7.07532529e-02
   -3.25702739e-01   2.20693381e-01   3.08431987e-02   4.91937047e-02
    1.87920652e-01  -1.64495158e-01   4.35565083e-02   5.88788741e-01
    3.63873472e-01   2.97304356e-01  -5.39620670e-01  -2.86446793e-01
    7.09313248e-01  -7.10577534e-01   3.37931991e-01  -5.66006638e-01
    1.64028927e+00  -5.18907743e-01   2.46731109e-01  -1.09318435e+00
    1.46435942e+00  -9.89938066e-01  -4.07258104e-01  -9.25029701e-01
    7.57810208e-01  -3.16046238e-01  -4.76391467e-01  -8.86353822e-01
   -5.53562838e-01   3.19090997e-01   4.99135897e-01  -1.32008040e+00
    3.84830635e-01  -1.26326763e-01  -4.90934781e-01  -2.99601579e-03
   -1.14015193e-02  -3.71090581e-01  -5.40628433e-01  -5.06656738e-01
   -5.07043787e-01  -3.44347875e-01  -4.62030186e-01  -1.83489637e-01
    3.17304272e-01   7.70908611e-01  -2.49959024e-01  -2.53312416e-01
   -1.00909914e+00   6.38767142e-01   3.85656160e-01   3.16415990e-01
    2.26475936e-01   1.09342448e-01  -3.19140723e-01  -1.40646068e+00
   -1.15230086e-01   3.29717598e-02   4.07211508e-01   7.82485214e-01
   -4.42455686e-02  -3.57495092e-02  -2.71579326e-01  -1.25819372e-02
    9.69756832e-01  -4.86100938e-01   3.86499071e-01  -1.35892123e+00
   -5.98176781e-01   5.97629092e-01   3.92260687e-02  -1.05258064e-01
    3.96055889e-01  -2.75680204e-01  -1.85844809e-01   2.82459905e-01]
 [ -3.81338659e-02   1.46677519e-01  -3.51868316e-01  -3.57154840e-01
   -8.37131083e-01   2.91239498e-01  -9.53651104e-01   8.04747213e-01
    2.81683442e-01  -2.24618236e-01  -2.44561797e-01   3.24524655e-02
   -1.03147228e-01   1.24302042e-01  -3.97160716e-03  -7.70372139e-01
   -9.97020848e-02  -7.69774571e-01   3.97026754e-01  -3.34077076e-01
    1.11247920e+00  -1.28663115e+00  -5.84335651e-01   3.50064873e-01
   -1.41613825e-02  -2.13525593e-01   1.93241977e-01  -2.39490968e-01
   -3.63288950e-01  -7.76590300e-01  -2.74856216e-01  -1.73678069e+00
    4.76285370e-01  -7.61494585e-01  -1.26713697e+00   8.00562651e-02
   -3.60146947e-01  -4.82513863e-01  -3.45546573e-01   7.25804838e-01
    1.30657226e+00   3.23808958e-01  -9.25555984e-01  -3.97287864e-01
    3.98709377e-01  -9.00413599e-01  -2.46455457e-01  -2.40385702e-01
    5.30901823e-01  -8.77911443e-01  -6.21767384e-01  -1.23281664e+00
   -1.57303278e-01  -5.33164833e-01   3.28041733e-01  -1.23472000e+00
   -7.57739321e-01   5.57412293e-01   2.09857518e-01  -3.74356066e-01
   -6.40080545e-01   8.04277942e-01   4.06479804e-01  -2.60825616e-02
    8.90811534e-01  -1.13338408e+00   1.58954683e-01  -6.55329283e-01
   -7.43590744e-01  -5.80989826e-01   6.31371866e-01  -7.63425402e-01
    1.17578062e-01  -9.54660797e-01  -1.11662573e+00   4.06068887e-01
    4.33463763e-01   1.18870050e+00  -1.34502808e+00   9.41033565e-01
   -6.53170674e-03   9.68736907e-01   1.01648490e+00   2.25433262e-01
    4.83750902e-01  -6.62806189e-01   6.25466958e-01  -2.08439873e+00
    1.92242603e-01  -6.20770803e-01  -4.53969220e-01  -3.08559541e-01
    1.71733955e-01  -7.28230708e-01   1.26014916e+00  -5.84932896e-01
   -6.06634199e-02   3.29202792e-01  -3.91032816e-01  -8.41960206e-01
   -1.02239656e+00   2.32657279e-01   9.31905457e-01  -2.73671748e-01
   -1.27981743e-01  -4.79466585e-01  -2.46989805e-01  -1.09046974e+00
   -1.06150402e-01   5.77682573e-01   3.79948625e-01  -7.08223977e-01
   -7.13329727e-01  -1.22500352e+00   1.07642737e+00  -1.37013927e-01
   -1.05414783e+00   3.38256430e-01  -3.07522169e-01   1.32988370e+00
   -6.33016984e-02  -1.38728047e+00  -3.88313668e-01  -1.77895917e-01
   -9.54114206e-01  -8.69972830e-01  -1.17425207e-01  -1.37585039e+00
    2.29168258e-01   1.13526274e+00  -3.82845652e-01   5.62584559e-01
   -9.04432132e-02   1.05200498e-02   1.75128606e-01  -2.57949845e-01
   -9.01003360e-01   3.79464328e-01  -7.82903620e-01  -7.27355111e-02
   -1.91084614e-01   2.17917618e-01  -9.85468372e-02   4.10163494e-01
   -8.85803476e-01   3.52656940e-01  -4.24656357e-01   3.65549618e-01
   -7.76330715e-01   1.99309561e-01  -8.31377604e-01  -2.23491399e-01
    4.17332022e-01  -1.13431868e+00  -7.30425822e-01  -1.07947444e+00
    3.48725844e-01  -4.02016988e-01  -3.34482249e-02  -1.17338623e-01
   -1.29486051e-01  -3.69491391e-01  -3.73067110e-02   1.25833673e+00
    1.09093958e+00   4.12423916e-01  -6.41239827e-01   4.86179728e-01
   -4.99895042e-01  -1.19189460e+00  -1.51447424e-01  -6.08911526e-01
    2.47302682e-01  -7.34936346e-01   7.04216658e-02  -9.68335277e-01
   -2.92121186e-01   4.19892869e-01   6.22183488e-01  -6.01926282e-02
   -4.54890791e-01   3.48022474e-01  -1.16158021e+00  -4.90332210e-01
   -2.08847615e+00  -2.00670131e-01  -1.01431527e+00  -1.60955272e-01
   -4.48945535e-01   4.10645119e-01  -1.08642687e+00  -1.19115093e-01
   -2.33568272e-01  -1.26642057e+00  -2.73049927e-01  -6.86055547e-01
   -8.85013035e-01  -2.70786205e-01   4.49356127e-01   3.96487903e-01]
 [ -3.20061789e-02  -1.15985044e-01   5.05204147e-01  -9.32588794e-01
   -6.71714658e-01  -2.81159740e-01  -1.10312587e-01   4.14396294e-01
    4.11965001e-01  -4.21805346e-01  -5.70648152e-01  -4.02664395e-01
   -4.18382845e-01   2.75444670e-01  -7.63320965e-01  -1.36957777e-01
    2.20856014e-01   4.39834211e-01  -9.02786648e-02   1.04418979e+00
   -3.02862990e-01   2.59237942e-02   9.47074791e-01   1.06089646e+00
    6.86096420e-01   1.67021183e-01  -1.93878262e-01   5.34674720e-01
    7.97974609e-01   2.44173417e-01  -3.53935892e-01   5.02290074e-01
    7.26378373e-01  -9.68981846e-01   5.75951236e-01  -1.74820643e+00
    4.28858664e-01   1.18867465e+00  -3.68422255e-01  -4.07219039e-01
   -1.42630568e+00   3.01335242e-01   1.55155382e-01  -2.83699675e-02
   -2.24572152e-01  -1.18114637e+00  -9.52105949e-01   1.65871771e+00
    8.48356445e-01  -1.02633783e-01   1.00743074e-01  -1.04048347e+00
    4.73579428e-01   1.91702162e-01  -5.57050844e-01  -6.71523978e-01
   -9.54949790e-02  -3.91628873e-01   1.90351966e-01   7.33218195e-01
   -4.18412091e-01  -1.37729402e+00   5.74235759e-01   2.08363280e-01
    5.11015244e-01  -2.93107951e-01  -1.12904210e+00   6.79252555e-01
    3.62457299e-01  -2.28759084e-01  -3.93107380e-01   6.05460658e-01
    5.77719494e-01  -1.33657740e+00  -1.53939655e-01  -7.64928687e-01
   -6.45243233e-01   2.85667162e-01   3.19792198e-01  -1.12649992e+00
    2.10057754e-01   6.37066025e-01  -8.35382256e-01  -2.88736060e-01
    1.03570315e+00   6.98634290e-01   1.39193433e-01  -1.22131773e+00
   -3.66676980e-01   1.26998760e+00  -3.32253874e-01   2.11997000e-02
    5.44286588e-01  -9.01814248e-01   5.66673346e-01  -1.35372944e-01
   -8.39728744e-01  -6.12291264e-01   3.14982045e-01  -5.94074864e-01
   -4.04251438e-01   7.27940446e-01  -2.11123308e-01  -2.05204387e-01
   -2.86726454e-01   2.05452661e-01   2.12663347e-01   1.42555902e+00
    8.38271765e-01  -4.02045808e-01   5.40866869e-01   1.31497451e-02
    1.52841714e+00  -6.61802977e-01  -2.06568083e-01  -1.80619214e-01
    5.93650609e-01  -2.34110698e-01  -5.01108672e-01  -1.32769118e-01
    7.22081827e-01   1.41849334e-02  -2.49304896e-01   4.84997530e-02
    3.26546799e-02   2.26715537e-02  -5.05528287e-01   8.78200248e-01
   -7.89434021e-01  -9.65861643e-01  -6.39730133e-01   5.67792418e-02
    1.82203311e-02  -8.29576694e-01   4.63652038e-01   2.74162250e-01
   -1.01131864e+00   2.24251864e-01  -6.31278753e-02   2.41626333e-01
    3.32189912e-01   1.02085330e-01   1.07990868e+00  -1.21290706e+00
    3.37077346e-01   6.78576389e-01   3.14412967e-01  -5.58911996e-01
    1.07711663e-01  -2.85698591e-01  -4.98507514e-01  -1.02946083e+00
    6.87632158e-01   1.14671423e+00   3.03799816e-01  -2.48123353e-01
   -1.53637532e-01  -1.48206226e-01  -1.07304356e+00   1.13669076e-01
   -8.58639538e-01   3.85950348e-01   2.39836966e-01   4.22586904e-01
   -4.36615606e-01  -2.58775436e-01   5.52573850e-01   9.44616533e-02
    3.98510736e-01  -1.42957610e-02   2.39155696e-02  -2.55445212e-01
    8.04892774e-02  -2.06490066e-01  -2.60300283e-01  -1.10805227e+00
    8.95967458e-01   2.28086556e-01  -2.02113590e-01  -2.95066758e-01
    3.95543219e-01  -8.20855427e-01  -1.56984966e+00   1.56386066e+00
   -1.16111009e+00  -2.83586618e-01  -1.18247445e+00  -7.33449143e-01
    4.08049804e-01  -1.07283182e-01   7.70610961e-02  -1.75081949e-01
   -1.56134746e-01  -2.13389975e-01   2.91485677e-01   8.17252666e-01
   -9.13161650e-01  -3.77021465e-01   2.93235244e-01   5.09142048e-01]
 [  2.65159774e-01  -6.96297972e-01  -6.06718776e-02  -2.43032427e+00
   -1.52071187e+00   8.45242855e-01  -1.14153283e+00   1.28553644e+00
    2.28116603e-01   2.57453360e-02   1.26214348e+00   7.36050220e-01
   -3.20352261e-01  -7.80492200e-01  -7.01357486e-01  -1.40690227e+00
    3.59984250e-01   4.86669289e-01  -2.35180863e-01   1.08501531e-01
    2.69993353e-02  -9.98918010e-01  -6.96386235e-01  -1.42496784e-01
    1.67456867e-01   6.12219021e-01  -3.20336074e-01   3.81267077e-01
    1.25153520e+00   6.15756915e-01  -1.03041149e-01  -1.06216838e+00
    2.34159441e-01   1.11806917e+00  -3.09247070e-01  -1.43495117e-01
   -1.00319100e+00   9.73454670e-01   9.85934686e-01  -6.23381469e-01
   -1.56557007e-01   4.34287399e-01  -6.32914604e-01  -1.46298178e-01
    1.25442745e+00   2.50357191e-01  -7.34975099e-01  -3.25453745e-01
    2.06245385e-01  -5.30805941e-01   7.35067704e-01  -1.52518343e+00
    5.57378558e-01  -2.47233173e-02   8.02121095e-02  -5.23462975e-01
   -1.85809958e-01   2.82186108e-01   3.26931353e-01   3.55088471e-01
   -9.97568863e-01  -3.42258285e-01   3.01099128e-02   3.37177096e-01
   -7.75829794e-02   2.01961727e-01   9.20692422e-01   1.21738378e+00
    2.70011353e-01   4.74055023e-02  -2.15321151e+00  -8.22586610e-01
    6.04075831e-01  -3.37433786e-01  -2.98983322e-03  -7.21986588e-01
    7.14800345e-01  -6.33646194e-01   9.26450067e-02  -1.21972484e+00
   -5.28698493e-01  -2.88076789e-01  -4.47472176e-01  -1.14777563e+00
    6.76408061e-01  -1.22881752e+00   1.78399431e-01  -2.91964599e-01
   -1.70109073e-01   4.39631762e-01  -1.26254778e-01  -1.22160830e+00
    1.16847792e+00   4.19263104e-01   1.21009781e+00  -1.18414684e+00
   -4.33855752e-01  -8.47483800e-01  -4.98057633e-01  -3.46413805e-01
    2.60842953e-01  -1.10275287e-01   1.27951644e-01   1.77708802e-01
   -1.34691738e+00  -3.38152563e-01  -6.89702698e-01  -2.34722825e-01
   -7.93801290e-01  -5.22384542e-01  -6.70923625e-01   5.65301780e-02
   -2.14482577e-01   1.07057629e-03   2.24724818e-02  -9.96432878e-01
    9.26110319e-01  -5.14109172e-01  -3.55563325e-01   3.10191715e-01
    9.60772864e-01  -9.46200289e-01  -3.27758197e-01  -1.04585580e+00
   -8.31605117e-01   4.11455461e-01  -3.59500105e-01  -6.41678675e-01
   -6.08469367e-01  -7.96106482e-01   4.56082684e-01  -4.51818720e-01
   -4.67292474e-02  -6.83381670e-01  -6.70073702e-02   5.44676855e-01
    1.72444382e-01  -1.05156886e+00   1.84012279e-01   8.51949577e-01
   -1.31294629e-01  -7.27060258e-01   3.84801283e-01  -3.96607889e-01
   -2.96869574e-01  -9.73529496e-01   8.52771121e-01   4.60535300e-01
    3.60867800e-03   1.93506639e-01  -1.18587166e+00  -4.01574969e-01
    3.08624414e-01  -9.38668679e-01   7.03073487e-01  -4.39473666e-01
   -1.84119344e-01  -2.41999201e-01  -4.51308522e-01  -1.57383279e+00
   -8.94347007e-01  -4.38978033e-01  -1.69699831e-01  -1.30891380e+00
    1.39531093e-01  -2.87384349e-01  -8.94348187e-01   6.57384861e-01
    1.08248730e-01  -9.94623506e-01   4.05647581e-01  -1.27711570e+00
    1.50629595e+00  -7.11158852e-01  -4.21163458e-01   8.29273247e-01
    3.79268907e-01   3.63156102e-01   7.33711407e-01  -4.90307388e-01
    7.01846950e-01  -7.24341236e-01  -6.19622884e-01   5.18169054e-01
   -1.85027668e+00  -5.16643843e-02  -6.24352283e-01   9.52319533e-01
   -1.97258657e-01   7.13645852e-01  -5.12102811e-01   6.73200420e-01
    6.46675539e-01  -3.43690121e-01   5.72781817e-01  -6.89455589e-02
   -2.12117542e-01  -6.23012307e-01   6.47057236e-01  -5.96382132e-01]
 [  5.37244013e-01  -1.10520244e+00  -3.30777049e-01   5.77147220e-02
   -4.73163217e-01  -1.31769699e+00  -2.33357831e-02   6.90880915e-01
   -7.61200274e-01  -1.06867290e+00  -2.73240605e-02   4.38379487e-01
   -6.87433198e-01  -6.99380295e-01   7.09339624e-01   1.12787321e+00
    1.07659130e+00   9.13972420e-01  -1.06196532e+00   2.09223806e-01
   -7.13994877e-01  -8.22041018e-01  -2.33281702e-01  -2.68878801e-01
   -5.25573453e-01  -6.48603250e-01   9.87365036e-01  -2.69330106e-01
    1.66760918e-01   1.08091646e+00   4.74465126e-01  -1.12904878e-01
    1.63027964e-01  -1.38950485e-01  -1.24748862e+00  -3.34720604e-01
    2.29775216e-01  -1.44799983e+00  -3.15189967e-01  -5.93377524e-01
    1.05108344e+00   2.04847159e-01   2.89256979e-01  -6.99457854e-01
   -3.35580707e-02  -1.20477816e+00   1.02312935e+00  -1.13618901e+00
   -3.53466379e-01  -5.17446361e-01  -6.66799516e-01   5.67392617e-01
   -3.01231774e-01   5.86317409e-01  -3.24101499e-01  -1.28668785e+00
    4.86855815e-01   3.40459654e-01  -4.68208038e-02   8.09729723e-01
    5.57015627e-02   7.29944253e-01  -1.60401595e-02  -1.12195407e+00
    1.06514312e+00  -6.45050978e-03  -3.82087809e-01  -1.06433413e+00
   -5.85216902e-01  -1.76786792e-01   1.34358102e+00  -4.52479236e-01
    1.01773597e+00   3.16834891e-01  -9.58936233e-01   7.17279183e-01
    2.34651732e-01   3.77932380e-01   3.62449361e-01   9.94085656e-01
    1.09305924e+00  -1.92284984e+00   1.20265431e+00   8.55601592e-01
    2.81679249e-01  -1.28892763e-01  -9.57082674e-02  -2.39010636e-01
   -9.33946742e-01  -9.99474928e-02   1.12448555e+00  -2.69308433e-01
   -2.79929243e-01  -2.18014643e+00   7.38401359e-01   9.40426858e-01
    7.73334911e-01   1.39355295e+00   8.06826384e-01  -1.11203414e+00
    3.51174051e-01  -7.12918974e-01   4.88118727e-01   6.03000520e-01
    1.11395258e+00  -7.28493565e-01  -6.57986329e-02  -8.47686092e-01
    6.03238453e-01  -7.31008037e-01   5.50880041e-01   4.97727608e-01
   -5.00853711e-01   1.12186206e+00   1.41842626e+00  -1.84992091e-01
   -1.50256228e-01  -3.71971851e-01  -7.31549691e-01   1.68099014e+00
    1.42538465e-01  -1.65960930e-01  -1.33638083e-01   7.26338528e-01
    1.94812017e+00  -2.91356285e-01  -9.74943542e-01  -2.17612840e+00
    2.81141877e-01  -4.50106298e-02  -5.89480259e-02   3.60711792e-01
    3.53165936e-01   8.77571721e-01  -1.07504029e+00  -3.86050683e-01
   -2.76721539e-01  -5.42095874e-01  -4.10523180e-01   1.06008044e-01
    7.47882107e-01  -5.18889586e-01  -1.21575103e-01   1.16888119e-01
    8.49265553e-01  -1.05463988e+00   1.68233471e-01   2.92299073e-01
   -4.90607856e-01  -2.51830760e-01  -7.67580152e-01  -2.43027761e-01
    1.15016750e+00   1.28621876e+00   6.43596349e-01   5.09548069e-01
    1.93292691e-01  -5.97669844e-01  -1.79223270e-01   7.37662494e-01
    6.05006327e-01  -1.23199760e-02   1.37740417e+00   9.08599631e-01
    5.39691037e-01  -2.15454370e-01   6.24740583e-01   8.05232917e-02
   -5.69500202e-02  -8.43906792e-02   4.69650583e-01   9.75422359e-01
    3.86273063e-01  -6.20115173e-01   1.91747531e-01   6.43418841e-01
    6.79214620e-01   1.48777670e+00   8.70147503e-01   4.77779033e-01
    2.40991553e-01   2.48029222e-01   5.86464501e-01   3.23492939e-01
   -1.25540177e-01   7.05089865e-01   1.18119484e+00   1.74503987e-01
    6.71634344e-01   6.25096010e-01   6.39433396e-02   8.33440666e-01
    4.94448067e-01   4.01154606e-02  -1.29937397e+00   5.23979366e-01
   -9.85221296e-01   1.28628286e-01   7.15062209e-01   2.21314357e-01]
 [  1.11640127e+00   3.64272857e-01   8.87456985e-01   6.49912861e-01
    2.69241295e-02   2.40143659e-01  -1.90988416e+00   1.03877749e+00
    5.04022493e-01  -5.51893557e-01  -4.63978442e-02  -5.17697316e-01
   -7.26777992e-01   9.93119905e-01  -6.01258283e-01  -1.37168443e+00
    8.07315083e-02  -6.10513846e-01   6.00008956e-01  -3.05406186e-01
   -2.63565173e-01   3.88367068e-01   1.95760072e-01   2.18209953e-01
   -7.58477144e-01   1.46135413e-01  -4.11614225e-01  -2.99686898e-01
   -8.06483143e-03  -7.72881937e-01   1.94930008e-01  -2.92211332e-01
    5.66770285e-02  -6.98793058e-01  -6.47025542e-01  -9.26475366e-01
    3.09019131e-01  -5.82432366e-01  -1.27324467e+00   8.02421411e-02
    8.02180578e-01   1.16943819e+00   2.93508409e-01  -3.19736387e-01
    9.91342100e-01  -2.05899097e-01   3.99724800e-01   8.45574328e-01
   -1.01451051e+00  -5.70990656e-02   6.06853248e-02   9.54017531e-01
    1.63186537e-01   6.08961777e-01   6.40492060e-02   6.35404228e-02
   -9.09541450e-01   5.72330647e-01   7.20757925e-01   4.07367788e-01
   -1.51527217e+00  -8.92992274e-01   8.27894620e-02   7.50922220e-01
    1.16032665e+00  -2.45706252e-01   2.45460888e-02   1.23717520e+00
    6.68291700e-01  -5.32258600e-01  -9.76606623e-02  -2.52474496e-01
    1.78040830e+00   1.10191458e-02   1.10447047e+00  -6.25862105e-01
   -1.68559949e-01   4.59897098e-01  -3.55358102e-01   1.55751034e-01
   -2.01263762e-01  -4.64087685e-01   4.88378848e-01  -9.23820276e-01
    2.24061893e-01  -9.98917252e-01   3.51221034e-01  -3.45025795e-01
    2.57831755e-01  -3.82770847e-01  -2.94527617e-01  -2.43067512e-01
   -8.63516450e-01   4.74210576e-01   5.19235963e-01   1.01645479e-01
    4.46852094e-01   4.01043526e-01   1.63946026e-01   4.03455069e-01
    1.58037951e-01   8.40599054e-01   3.36838498e-01  -6.90643596e-01
   -1.03866604e+00   3.35240991e-01  -9.35287788e-01  -1.92550096e-01
    1.97076749e-01  -7.20115022e-01   9.61110143e-03  -8.60956360e-01
   -1.29212200e+00  -1.53759692e-01   2.71530419e-01   5.18800364e-01
    3.46632587e-01   1.66383980e-01   7.20820466e-02  -5.88710661e-01
    8.65667511e-01   6.16504212e-01  -6.32709067e-01   5.17557644e-01
   -1.77394313e-01   4.73683371e-01  -1.69036178e+00   2.95148164e-01
   -1.46773950e+00  -2.16606335e+00   2.70774600e-01  -3.27572591e-01
    8.55294303e-01   5.54807935e-01   1.11806821e+00   1.02943848e+00
   -5.90828081e-01  -1.10854076e-01  -1.13389597e+00  -5.25186325e-01
    3.31847594e-01   1.36557869e+00   3.19448599e-01  -3.98594702e-01
   -4.10309845e-02   1.01517853e+00   5.18664515e-01   2.27521617e-01
    1.19122408e+00   8.04724311e-01   2.42598278e-01  -1.33560610e+00
    1.71007685e+00  -3.96247794e-01   3.21628379e-01  -4.68307265e-01
    5.92945986e-01  -8.33743062e-01   5.00047454e-01  -9.49028965e-01
   -8.52723950e-02  -1.06668834e+00  -6.24830033e-01  -4.96330707e-01
    5.82555392e-01   3.17277351e-01  -5.80533015e-01   5.30206848e-02
   -3.26177022e-02  -7.25360332e-01   2.16075264e-01   7.31913629e-02
   -1.61906581e+00  -4.16010452e-01  -1.98325676e-01  -5.44883976e-01
    8.95149616e-02  -1.55430102e-01   3.70621681e-02   6.87344338e-01
    7.16201735e-01  -3.48655856e-01   3.01056925e-01   2.51069974e-01
   -5.61873447e-02  -1.31778550e-01  -7.55598712e-02   5.74415038e-01
    1.12602610e+00   1.22780564e+00  -5.93077124e-01  -3.65695449e-01
    5.10602682e-04   8.24809184e-01   5.58274067e-01   4.97313219e-01
   -8.11826503e-02   4.39294174e-01   1.84167061e-01   5.47605675e-01]
 [  7.08455887e-01   4.69034252e-01  -3.63022215e-01  -1.75377735e-01
    2.13184605e-01  -8.57543753e-02   3.63882540e-01  -1.10286952e-01
    4.53119119e-01  -3.17880162e-01   9.46994695e-02   2.56736504e-01
    4.49154662e-01  -1.43360040e-01   4.78788461e-01   8.54036996e-01
    3.01660507e-01  -3.93529352e-01   9.76700045e-01  -1.96528273e-01
    1.23800241e+00   4.26960509e-01  -3.24076694e-01  -2.23824639e-01
    6.42081606e-02   2.31508144e-01  -2.71918845e-01   6.83658946e-01
    1.11761728e-01   8.00469106e-01  -5.48920685e-01  -3.58152900e-01
   -6.43856593e-03  -1.70921744e-01   6.36545077e-02   3.18037185e-01
   -4.57321549e-01  -7.07157475e-01  -6.09039742e-01  -8.31478875e-02
    8.05595046e-01  -4.45213234e-01   1.81373973e-01   2.87034583e-01
   -4.70960951e-02  -8.41030863e-01   7.35981199e-01   2.00952811e-01
    6.38473221e-02  -2.59148883e-01   4.63291485e-01   2.47905841e-01
    4.55827202e-01   7.66306206e-01   5.55941755e-01   7.24492649e-01
   -1.61567540e-01   2.86223389e-01  -4.66072193e-01  -3.38975077e-01
    1.18134192e-01   8.55672482e-01   7.63490918e-01  -1.03378237e+00
    4.08330730e-01  -4.07383836e-01   8.11001496e-01  -7.39233289e-01
    7.36718800e-01  -4.32157566e-01   7.21761611e-01  -2.78284880e-01
    6.01840805e-01   1.23515764e+00   8.15687865e-01  -7.08920974e-01
   -1.20248306e-01  -3.73429174e-01  -3.88164016e-02  -1.46713644e+00
    8.12117141e-01   3.54636643e-01   1.12500481e+00  -2.30968574e-02
    1.21325438e-01   4.56223299e-01  -8.46975319e-01  -7.70191103e-01
    6.91151409e-02  -2.48706139e-01  -1.16887523e-01  -1.67696612e-01
    2.59037591e-01   4.74078392e-01   4.10574369e-01  -1.11241556e-01
    5.35902547e-01   6.56020389e-01   2.70403186e-01  -5.29548303e-01
   -1.19804486e+00   7.68400529e-01  -1.03866046e-01  -3.78115356e-01
   -8.66780353e-01  -7.51646070e-01   4.63267228e-01  -5.04176658e-01
    5.94808606e-01   3.57246215e-01   1.24506613e-01   6.32135236e-02
   -9.54723373e-01   2.97818460e-01   3.97552045e-01   6.23159914e-01
   -3.75548885e-02   3.39394025e-01  -9.21143949e-02  -7.33450862e-01
    3.61635189e-01   4.53248939e-02  -5.48444777e-01   2.14666008e-01
   -1.08315573e+00  -8.46167473e-01   9.83924242e-02  -2.68331314e-02
   -9.04151871e-01   4.06419984e-01   1.38880002e+00  -5.22398530e-01
    7.25242680e-01  -3.65898753e-01  -7.70933064e-01  -5.16761553e-01
    5.47748326e-01   9.36507044e-02  -4.30222934e-01   1.35083943e+00
   -2.68618523e-01   7.53629869e-01   3.12769509e-01  -2.68628199e-01
    1.02764285e+00  -9.59687311e-01  -1.26881609e-02   4.57079951e-01
   -1.35918520e+00  -1.22713869e-01   1.50480297e-01   6.74290263e-01
    8.25791508e-01  -1.49722823e+00   3.51656116e-01  -5.71459393e-01
   -6.26503523e-01   4.35851102e-01  -7.55701481e-02   2.93191317e-01
   -7.91731796e-01   1.41069408e+00  -1.95896391e-01   3.75446125e-01
    4.92693243e-01   2.70702714e-01  -1.04545277e+00   2.04189048e-01
    8.87432187e-01   8.20411209e-02  -1.09727927e-01   1.23231951e+00
    2.32099157e-01  -1.07866548e+00   2.86717007e-01  -9.28724269e-01
   -3.52997380e-01  -1.12079521e+00   3.15787308e-02  -4.72619852e-01
   -3.76516155e-01  -4.46148191e-01   8.30481363e-01   1.66295969e-01
    4.80822352e-01  -1.80798781e-01   1.14632836e+00   7.99252876e-01
    4.04162076e-01   2.81201290e-01  -1.08239204e+00  -1.73888286e-01
    1.17147698e+00   3.21224602e-01  -1.23190055e+00  -3.76341918e-01
   -9.40133650e-02   2.51085819e-01   6.66125302e-01   7.68574104e-02]
 [  1.49224650e-02  -3.01642997e-01  -4.76117350e-01   1.10112476e+00
   -6.54379896e-01  -1.45738313e+00  -1.57764350e-01   1.68545552e+00
    9.00258625e-01   1.00692029e+00   2.58177138e-01  -1.26161113e-01
    2.56938365e-01   1.76231293e-01   1.90256341e-01  -1.18150082e-01
    1.49288046e-01  -1.38196454e+00  -9.89918513e-02   3.27527109e-01
    3.58349020e-01  -4.51007331e-01  -8.22896027e-01   6.66975228e-01
    4.58095688e-01  -1.03875832e-01  -3.42228771e-01   8.55739994e-01
   -8.82253651e-01  -5.66614018e-01  -8.50098397e-01   9.90888446e-01
   -1.75050752e-01  -1.25051277e+00   8.81892481e-01  -1.12583721e+00
    7.81585326e-01   2.30630533e-01  -6.40315897e-01  -2.27695179e-01
   -1.02596225e+00  -2.97523186e-01   1.12454706e+00   1.50627779e-01
    2.43482042e-01  -1.29532632e+00   6.10359659e-02  -2.47085833e-01
    8.58103582e-01   1.47311825e+00  -6.33360122e-02   9.81531877e-03
    7.32206760e-01  -5.20174457e-01   4.78175924e-02  -4.20474657e-01
    2.39862869e-01  -3.25638308e-01  -1.22124218e+00   6.19458440e-02
   -9.14671788e-01   1.55638631e-02   2.13658952e+00   8.46235953e-01
   -8.63433720e-01  -1.34897842e+00  -2.21965341e+00  -5.71482580e-01
   -5.38482314e-01  -8.29981820e-01   9.07422233e-01   4.82793438e-01
   -2.43196041e-02  -7.60022992e-01  -2.29932780e-01   7.38068856e-01
   -7.37262899e-02   1.19433292e+00   5.54312700e-01  -3.21588900e-01
   -2.72116945e-01   8.22546152e-01  -1.00012672e+00   6.87703325e-01
    3.84887078e-01   1.04419466e+00   1.49153154e-01  -1.38915184e+00
    1.03494605e+00   9.45376457e-03  -1.27511687e+00  -1.51695698e-01
   -3.49403004e-01   8.15591799e-01   5.46242737e-01   3.62933732e-01
   -4.74571420e-01   3.16843888e-01   6.79708036e-01  -4.92737722e-01
   -5.34070456e-02   1.06573517e+00   9.19470540e-02  -1.13482242e-01
   -9.33347053e-02   3.36288795e-02  -1.26730269e-01   1.25565893e+00
    4.91212642e-01   8.83254812e-01  -4.71439218e-01  -1.07223843e-01
    7.30376170e-01  -6.18581586e-01  -8.78575055e-01   2.99850971e-01
    1.04006129e-01   6.96324154e-01   8.34479505e-01  -7.43171259e-01
    1.87991510e-01  -1.99749185e-01  -8.34082334e-01   3.67645456e-02
   -2.74833717e-01  -3.01676621e-01  -2.83941342e-01  -1.19285886e+00
    1.83659644e-01   4.22208427e-01  -1.57974915e+00  -3.86174029e-01
    9.56546571e-02   2.26938287e-01   4.37033787e-01   5.86847039e-01
    1.67242639e-01   3.77733207e-01   6.32031810e-01  -1.96324989e+00
    1.14571805e+00   2.75719162e-01   8.95798323e-01  -2.35930717e-01
    2.74497374e-01   1.20951897e+00  -3.98094247e-01  -1.33226263e+00
   -1.42971622e-01  -7.06466442e-01  -3.30008498e-01  -5.98634588e-01
    2.06800711e-01  -1.48960575e+00   6.11253170e-01  -1.38507408e+00
   -4.46967999e-01  -1.55007325e-02   4.19590462e-01   9.16184169e-01
    6.39305823e-01  -6.68528630e-01  -2.60991647e-01   8.87873252e-01
   -8.45234018e-01  -2.68787637e-01   1.29481944e-01   4.70872879e-01
    1.16057278e+00  -5.44374198e-01  -5.37394706e-01  -4.88068828e-01
   -8.59313911e-01   9.15717848e-01  -3.48872862e-01  -8.21130813e-01
   -7.70465489e-01   4.20080538e-02   9.37254222e-01   9.71426620e-01
    2.94237137e-01   7.33481152e-02   2.74336967e-01   1.53674536e+00
   -2.68676504e-01   2.87517415e-01  -1.29951535e-01  -3.92802556e-01
    3.22227643e-01  -1.06403980e+00   2.94184376e-01   4.82644633e-01
   -3.10904456e-01  -8.45329665e-01  -2.33940820e-01  -2.65672066e-01
   -3.65399248e-01   5.33284640e-01  -4.17206182e-01   1.49723519e+00]
 [  7.41894476e-01   6.34172363e-01   4.75215031e-01  -6.43892951e-01
   -2.77317895e-01   8.81831910e-01  -6.47480182e-01  -8.97520830e-01
    5.28837462e-01   9.38848026e-02   1.04912981e+00   2.69559871e-01
   -1.81966240e+00   2.76364677e-01  -4.54812169e-01   5.15774726e-02
    1.27134146e-01  -1.96561352e-01   1.97928771e-01  -4.06980223e-01
    1.05763178e+00  -5.74918686e-01   1.49122940e-01   8.11357138e-01
   -9.40460718e-01   4.40020967e-01  -6.85143263e-01   1.53242823e-01
    4.09497184e-01  -3.29740532e-01  -6.56945457e-01  -4.41300842e-01
    8.73013054e-01   4.48209340e-01   7.98198382e-01   9.28345943e-01
   -1.03180302e+00  -8.20407764e-01   6.99625135e-04   4.01448127e-01
    5.31233574e-01   2.59988399e-01   3.63437163e-01   1.81006344e-01
   -6.52252118e-01   1.43162790e+00  -1.30663129e-01  -1.57390711e-02
    1.56386661e-01   1.27463052e+00   2.81690891e-01  -4.33460547e-01
   -4.66594770e-01  -5.94895101e-02  -6.17412431e-01   1.19956122e+00
   -2.47138249e-01  -2.55463834e-02   1.26587078e+00   1.93949411e-01
    6.95437914e-01  -6.09602376e-01  -4.63039661e-01  -1.02401519e-01
    4.56492816e-03  -2.17956432e-01  -5.02436007e-01   6.02961795e-01
   -4.87506234e-01  -1.65198239e+00  -3.17094302e-01  -2.18369657e-01
    1.02346445e+00  -3.33437893e-01   9.25106004e-01   8.98951371e-01
   -1.02715103e+00  -5.44760882e-01  -3.27081469e-01  -4.38450293e-01
   -1.04869775e+00  -6.18216132e-02   3.02807710e-01  -5.34165140e-01
    4.86391974e-01  -6.17491936e-01   6.64458652e-02   4.97514932e-01
   -9.15281996e-01  -6.47638514e-01   2.01829536e-01   6.53334695e-01
    9.34214091e-01  -1.51827266e-01  -2.00333780e-01  -1.18939336e+00
    3.53207906e-01  -5.29018770e-01   6.05949995e-01  -1.28425003e+00
    8.06604576e-01   3.78693797e-01   6.81947814e-02  -1.97535287e-01
    1.48335975e+00   1.00043801e-02   3.56041294e-01  -4.29995871e-01
   -7.39348050e-02   7.43995034e-01   4.12934794e-02  -1.58201663e-02
   -1.85453296e-01   9.81146199e-01  -3.45271498e-01  -4.44814450e-01
    6.37917808e-02  -1.60329819e-01  -5.21942234e-01  -4.89889909e-01
   -2.39103525e-01  -9.25281675e-01   1.08800605e+00   1.52369349e-02
   -3.74889149e-01   6.31020703e-01   6.80688255e-01   8.97502051e-01
   -3.61238139e-01  -4.65059335e-01   7.67971590e-01  -3.78178195e-01
   -6.14849590e-01   3.57552800e-01   6.87183810e-03   5.40823941e-01
   -7.22199979e-01  -7.31442189e-01  -1.77284928e-01   1.82367578e-01
   -1.17093081e+00  -8.29518332e-01   1.74023548e+00   3.97909706e-02
    1.10434136e-01  -7.53656114e-01  -5.00760995e-01   2.59997938e-01
    6.81805409e-01  -1.41376666e+00   5.84275052e-01   5.12072099e-01
    3.45125709e-01   4.78855217e-01  -1.60515582e-01  -6.58702843e-02
   -1.16712547e-01   1.88149525e-01   9.78329667e-02  -6.59305297e-01
    2.57712918e-01   1.68003731e-01  -1.67244473e-01  -1.01525597e-01
   -2.91937209e-01   1.02491481e-01   2.30730629e-01   3.41339959e-01
   -7.12167665e-01   1.27883741e+00   8.17669545e-01   1.08457802e-01
    2.09133392e-01   6.63008715e-01   8.53597106e-01   3.57695002e-01
    9.48535725e-01  -1.55120921e+00  -7.32200076e-01   1.17251450e-01
   -6.23855941e-01  -4.09954605e-01  -6.25161247e-01  -5.31005231e-01
   -6.93795956e-01  -1.31058037e-02  -3.01434488e-01   4.27804888e-01
   -9.20039376e-01   5.99270074e-01  -6.81250150e-01  -8.10225781e-01
    2.56022433e-01   1.77652378e-01   1.75624589e+00   6.37783631e-01
   -1.76624169e-01   2.60621587e-01  -7.98911691e-01   5.04457836e-01]
 [ -4.90421834e-01   2.43430412e-02  -3.32691051e-01   9.11209607e-01
   -1.12597880e-01   3.49465201e-02   8.53923262e-01  -1.91223749e-01
   -1.35734229e+00   1.03435999e+00   5.60439549e-01   3.95092167e-01
    6.57376800e-01   1.60731058e-01   7.26878330e-01  -9.98382343e-01
    1.40206345e+00   1.24243452e+00  -1.17554126e-01  -1.28796216e+00
   -7.02274656e-01  -1.62995254e+00  -1.03240649e+00   1.12383994e+00
   -9.36628072e-01  -6.13473152e-01   5.06539373e-01   4.74417041e-01
    2.10462810e-02  -1.00799735e+00   1.09891465e+00   1.34303726e-02
    5.08840744e-01   3.93860345e-01  -4.44686121e-01  -9.30982767e-01
   -6.75645090e-01   4.12005522e-01   5.86394684e-01  -4.45589765e-01
   -1.15985000e+00  -1.48479201e-01  -2.76899368e-01  -3.35689647e-01
    4.22062925e-01   5.37451895e-01   3.80267531e-01   3.16988962e-01
   -4.60515895e-01   9.14931939e-02   8.27638938e-01   8.67065842e-01
   -1.15770775e+00   2.57160643e-02  -2.69824496e-01  -4.80209617e-01
    1.12933055e+00   4.45667300e-01  -2.58975756e-01   1.24843114e-01
    3.31768963e-01  -5.26971158e-01  -6.99365046e-02  -1.49024781e-02
   -1.21857696e+00   4.88259032e-01  -6.80855398e-01   6.57952263e-01
   -1.13479467e-02   1.71254934e-01  -7.46934964e-01  -8.51954915e-01
   -9.07091352e-01   3.97481047e-01  -5.83796457e-01  -1.29832758e-01
    1.05565231e+00  -9.88487471e-01   2.23849182e-01   3.17803291e-01
    3.27075417e-01  -2.71682775e-01   1.38889714e+00  -5.37485433e-02
   -9.15655986e-01  -6.73306717e-01  -2.09726737e-01   5.11621373e-01
   -1.46201118e-02   4.21911901e-01   4.08537872e-01  -1.64411269e-01
    2.43880604e-01   5.71302656e-02   6.72484483e-01   5.47782330e-01
    4.25167773e-01  -2.20251584e-01  -1.20083339e+00   1.57529820e-01
   -1.74766136e-01  -5.12201683e-01  -3.00815130e-01   9.91509157e-01
    6.34224706e-01  -7.87408582e-01  -7.68665466e-01   3.07826297e-01
    4.80018769e-02  -2.07527869e+00  -1.65210831e-01  -6.45301562e-01
    8.63587772e-01  -1.27976419e+00  -3.77407236e-02   1.11970455e-01
   -4.88315525e-01  -3.90854798e-01  -3.92565887e-01  -9.78998142e-01
   -2.17632629e-01   2.00565091e+00   9.33918744e-01  -7.38102165e-02
    2.05336527e+00  -4.40860417e-01  -1.12044995e-02   1.84299280e-02
   -4.90242135e-01  -3.10524784e-01  -1.10351168e+00   8.35251286e-01
   -1.17201644e-02   1.34518594e-02  -9.53356726e-01   2.58217336e-01
    8.07382122e-01  -6.60288552e-01  -3.39863523e-01   9.16268623e-01
   -1.43890955e+00   1.61878882e-01   6.67809288e-02   1.08535847e+00
   -3.96876163e-01  -1.13217822e+00   7.70930110e-01  -8.36375153e-01
   -5.43700867e-02  -5.17176434e-03   3.68010977e-01  -6.02347320e-01
    1.51608341e-01   8.82700815e-01   1.18743986e+00   2.64044944e-01
    5.67559271e-01  -1.90863732e-01   5.01969328e-01  -3.80877220e-01
    1.11393886e+00   2.89662474e-01   1.01816801e+00  -5.67354895e-01
   -1.02978441e-01   4.20715152e-03  -4.58650846e-02   2.37838366e-02
   -2.07851783e-01   7.58903422e-02  -3.05547034e-01  -4.15511132e-01
   -1.17085108e+00   6.58387637e-01  -4.63921152e-01   1.24412894e+00
    9.14446950e-01   3.74608961e-01  -4.08707755e-01   4.17626730e-01
   -1.07260210e-01   7.38107959e-01   1.08005770e+00  -4.45765163e-01
   -2.08322261e-01   4.33884030e-01  -9.33199122e-02   2.80093147e-01
   -5.45559661e-02   6.48512930e-01  -7.41261291e-01  -8.35434620e-01
    2.72330428e-01  -2.07386365e-01  -1.01331590e+00   3.15717671e-02
   -2.27004254e-01  -1.46507338e+00   4.93798698e-01   2.75097015e-01]
 [ -3.88241810e-01  -1.07776280e-01  -9.76972571e-01  -2.92153638e-01
    1.02553010e+00  -6.43065478e-01   7.60250642e-03  -9.07088852e-01
    2.05572697e-01  -5.14051000e-01   1.50196033e-01  -2.74173338e-01
   -1.46542140e-01   7.19624833e-02   7.33779990e-01   5.22080006e-01
   -1.42918222e-02  -4.78455787e-02  -4.54428455e-01  -8.73316682e-01
   -1.13781981e+00   5.66419000e-01  -1.68500192e+00  -4.63595585e-01
    4.60341072e-01   5.15255324e-01  -1.91284023e-01  -4.41470986e-01
    2.85382687e-01  -1.46076202e-01   5.21437323e-01   9.39027160e-02
   -6.08647319e-01   5.66744309e-01   9.16069920e-01   4.10596784e-01
   -2.20324423e-01  -1.19874707e+00   5.38545101e-01  -1.95260731e-01
   -1.53143724e+00   2.92731267e-01   1.03370342e+00  -1.53372075e+00
    4.48753979e-01  -6.15145355e-03   3.17823150e-01  -3.43699144e-01
   -1.16205656e-01   2.58047733e-01   1.16288561e-02  -2.89012930e-01
   -8.74225211e-01  -1.47933738e+00   6.46350163e-01   5.92569707e-01
   -4.34958876e-01  -1.82441424e-01  -2.21548428e-01  -1.32511216e-01
    2.98063991e-01  -1.11492851e+00  -9.68094240e-01  -7.23836574e-01
   -5.25426422e-01   4.56554009e-01  -4.57571871e-02  -2.05321568e-01
    8.39254210e-01   1.22579718e-01   3.22560393e-01   6.44699197e-02
   -5.01534943e-01  -1.23355023e+00   1.32606604e+00   4.77115712e-01
    5.68759695e-01   5.66733878e-01   3.71987835e-02   3.58175452e-01
   -2.84692158e-01   4.65134269e-01   7.26354921e-01   2.95479843e-01
   -2.61074136e-01   1.96141305e-01  -8.41093748e-01  -2.47545779e-01
    1.60067410e+00   6.36515071e-03   1.92975535e-02   4.31529120e-01
   -3.45965860e-01  -9.46887008e-01  -8.08051499e-02  -9.41921562e-01
    3.47784801e-01  -1.91950036e-01  -2.65922792e-02   4.63550160e-01
   -3.74893168e-01   2.51804821e-01   2.36018808e-02   9.51370725e-01
   -2.57802657e-02  -2.04665320e-01  -1.14742119e-02  -8.66584888e-01
   -1.01818697e+00   1.36284378e+00   8.61409839e-02  -3.00727253e-01
    9.15992479e-01   2.17369114e-01   6.88844814e-01  -2.28854263e-01
   -2.29865091e-01   8.12784402e-01  -2.12658220e-02  -1.57929122e+00
    7.49908108e-01   4.25212741e-01  -7.84497155e-02  -5.84767234e-01
    5.83168817e-01  -8.37907938e-01  -5.88445567e-01   2.04671737e-01
   -9.40463841e-02  -1.66961181e-01  -1.15835820e+00  -2.32477162e-01
    5.59249980e-01  -1.91837955e-01   5.65558716e-01   7.75427368e-01
   -8.87692662e-01  -4.43173671e-01   3.97856966e-01  -3.06308066e-02
    2.27119404e-01   5.76655655e-01  -7.50419953e-01   1.01476019e+00
   -3.46762116e-01  -4.30554418e-01  -4.33348512e-01   1.41037814e+00
    1.26997911e+00   4.81693568e-01   7.51963044e-02  -8.86272298e-02
   -4.10454031e-01  -1.09826737e-01  -1.25150535e+00   4.17525759e-01
    1.35384077e+00  -4.26765079e-01   1.05189059e+00   1.60391889e-01
   -9.92422660e-01   7.10881378e-01  -1.56003972e-01   7.58673281e-01
    2.69258158e-01  -3.99380683e-01  -3.18584991e-01  -7.67470934e-03
   -3.06280957e-01   7.95930934e-01   5.74426436e-01  -4.13672322e-01
   -1.07706238e-01  -7.18069038e-01   8.06701724e-01   5.90112311e-01
   -1.08504812e+00  -4.80069229e-01   5.99585016e-01  -4.75519089e-01
    2.29869477e-01   5.15684961e-02  -1.39686881e-01   1.01038837e+00
    3.94446659e-01  -2.72546857e-01   6.15352776e-01  -3.59523297e-01
    7.10637243e-02   5.38626544e-01  -2.29479853e-01  -1.14633712e+00
   -1.15364130e+00   1.39808400e-01  -2.03361432e-01   3.09739620e-01
   -7.35290261e-03  -1.07327332e+00  -8.08539426e-01   3.43296142e-02]
 [  6.25904355e-01   2.39435514e-01   9.62228216e-01  -1.98880194e+00
   -1.19746433e+00   1.48538446e-01  -5.61617250e-01  -1.06173462e+00
    1.26461834e-01  -1.62252578e+00  -1.50726329e-01  -3.81510399e-01
    2.38123633e-02  -3.11348530e-01  -1.28659107e+00  -8.98871434e-01
   -2.71843734e-01  -1.08116639e+00   6.24787909e-01  -2.09448082e-01
   -1.15922244e+00   4.17508174e-01   8.94941746e-01  -1.85499568e+00
    2.03134631e-01   4.36724948e-04  -3.43837713e-01   4.72574876e-02
   -1.21022539e+00   6.37467273e-02  -5.58305953e-01  -5.60950762e-02
   -1.19654587e+00   7.02821980e-01   1.05806439e+00   5.07952468e-01
   -1.36074957e+00   2.26729170e-01  -8.01178757e-01  -1.09697878e+00
    1.61742190e-01   3.80314946e-01   4.78198810e-01   1.91421360e-01
   -1.33205119e-01  -5.90992216e-01   6.06680605e-01   5.48630078e-01
    3.93838594e-01   2.96384819e-01  -4.60887480e-01  -6.98704386e-01
   -8.35013542e-01  -5.73455707e-01   6.69994031e-01   9.71355262e-01
    4.84327239e-01  -1.66982440e+00  -1.92382564e+00  -6.02674399e-01
   -7.63023471e-01  -1.18355524e+00   3.30928339e-01  -8.70353236e-02
    3.82038681e-01  -4.36237236e-02   5.74084269e-01   2.21348733e+00
    1.25824605e-01   6.24386777e-01   8.19501510e-02  -5.40011685e-01
   -7.31506885e-01  -9.25048333e-01   6.95948186e-01  -5.66257805e-01
   -1.60485420e-01  -1.52649457e-01   9.81162410e-01  -7.07385043e-01
   -1.10148313e+00   7.79835684e-02  -1.16696866e+00  -7.23705944e-01
    9.03194296e-02   3.30555835e-01  -4.32045020e-01  -3.54178057e-01
   -9.40733172e-01  -2.47682435e-01   4.86184657e-01   1.27673218e-01
   -6.01360768e-03   1.09191300e+00  -1.03217258e+00   4.88828052e-01
    3.16249714e-01  -1.83660881e+00  -5.24363571e-01   5.40390350e-02
   -2.91624254e-01   8.54021700e-01  -1.86159800e-01  -9.30614786e-01
   -5.04614663e-01   5.00717443e-01   2.82237542e-01   2.71342938e-01
    2.68997117e-01   1.38322772e+00   1.00796774e+00  -4.19424304e-01
    8.96444439e-02   1.67715743e+00  -7.03395740e-01   3.98237149e-01
    3.45848704e-01  -9.82699278e-02   2.43373879e-01  -1.24026009e+00
    8.25394744e-01  -9.26047837e-02  -5.87147152e-01  -7.93531029e-01
   -4.39918187e-01  -5.54689753e-01  -1.38973368e+00  -1.09559565e-01
   -8.81794052e-01  -2.70973286e-01  -7.40976545e-01  -1.50211692e+00
    9.21127796e-01  -1.33715643e+00   1.33242582e-01  -5.40763090e-01
   -8.19080352e-01  -4.92912667e-01   7.03133730e-01  -6.29834746e-01
    5.15506622e-01  -3.84325526e-02   4.46400315e-01  -4.15904756e-02
    5.22811454e-01   3.09642614e-01  -3.90246335e-02  -9.45395325e-01
   -5.25949111e-01  -5.74929325e-01   2.84514222e-01  -1.07351265e+00
   -7.01146736e-01  -6.30958450e-01  -8.89552675e-01  -6.83923919e-01
   -7.83727151e-01   3.47793526e-01  -2.65784868e-01  -1.97434964e-01
   -2.22382277e+00  -4.26612869e-01  -1.01641531e-01  -7.78497809e-01
   -6.83388543e-01  -4.51833612e-01  -7.43061665e-01  -3.89224121e-01
    1.64627744e-01   6.19614420e-02  -7.08099798e-02   8.84446901e-01
   -5.94037930e-01  -2.69990167e+00  -6.84451803e-01  -1.15761551e+00
    8.95760702e-02  -1.40755062e-01   3.32001641e-02   7.39645607e-02
   -4.84769100e-01  -1.53510927e+00  -8.29397376e-01   6.50961794e-01
    7.32843736e-01   6.26951304e-01   9.81464125e-01  -2.49014867e-02
   -2.29839018e-01   5.14453567e-01  -4.72816787e-01   6.40099763e-01
   -4.74522353e-01   1.40500582e+00   6.20118470e-01   3.04721699e-01
   -1.58889299e-01  -3.44234130e-01  -1.32984549e+00   4.41119535e-01]
 [  6.21914929e-01  -4.18780891e-01   7.88286393e-01   2.85210689e-01
    1.86435037e-01   1.99851700e-03  -1.50081602e-02   1.37723489e-02
   -1.80290724e-01   4.36824869e-01  -4.74457684e-01  -1.25529179e-01
    1.98074324e-01   1.04918182e+00   1.04523211e-01  -6.18896734e-01
    2.94744326e-01  -4.38632255e-01  -1.85343543e-01  -1.20949015e+00
    5.95305767e-02  -4.05679780e-02  -1.43493753e+00  -7.45854679e-01
   -4.22672303e-01   3.93367306e-01   6.32759257e-01   2.76877097e-01
    9.41679568e-01  -4.08972134e-01  -3.88794184e-01  -9.39360192e-02
   -1.87031330e-01   7.27870638e-02  -2.42412554e-01   6.69032504e-01
   -5.93521149e-01   2.26340896e-01  -9.88317023e-02   6.11919953e-01
    1.59796330e-01   2.04151093e-01   4.44486078e-01  -3.28060893e-01
    3.62408316e-02  -9.23388734e-02   1.00841658e+00  -1.14365270e+00
   -6.49555953e-02   8.19707179e-02   1.45856674e-01   7.18643636e-01
   -6.13745680e-01  -2.17808100e+00  -7.74300966e-02   9.68228031e-02
   -5.91999157e-01  -3.83935777e-01  -5.71081222e-01   8.95638178e-01
   -8.38022283e-01  -9.63361139e-02   1.51825130e+00   4.70835717e-01
   -5.15258338e-01   8.58640006e-01  -4.22839625e-01   1.14979778e-01
   -1.05365473e-01  -2.84081206e-02   6.03889357e-02  -7.92992992e-01
   -8.62756274e-01  -4.03255605e-02   1.38636065e+00  -3.79349773e-01
    5.89021454e-01  -4.82755114e-02   7.73388180e-01  -8.93716696e-01
   -5.50260730e-01   9.72150735e-02  -1.17853565e+00  -3.57851693e-01
   -2.70463144e-02  -2.23915801e-01  -5.33598464e-02  -8.28216043e-01
    6.26724325e-01   3.82426966e-01  -2.93171096e-01   2.14772882e-02
    8.42615276e-02   8.31357755e-01  -1.78865176e-01  -3.89048487e-01
   -5.28005213e-01   2.12312592e-01  -8.12057805e-01   1.11925022e+00
    2.96317695e-02  -3.38704222e-01  -1.00949123e-03  -2.87897598e-01
   -7.71401035e-01  -2.52860492e-02  -6.77495640e-02  -6.28896793e-01
    1.57784634e-02  -3.78146773e-03  -6.11975485e-02  -6.42361167e-01
    7.23535923e-01  -9.83898831e-01  -4.74457032e-04   3.81515617e-01
   -8.33681286e-04   1.30199784e+00  -2.45138338e-02  -8.16173215e-03
    3.23487096e-01  -4.82950167e-01   7.73718476e-02  -1.00782117e+00
    6.53670876e-01  -4.64113816e-01   6.68245283e-01   2.08838944e-01
   -3.20662033e-01  -2.65377174e-01  -9.66771942e-03  -3.70956054e-02
   -4.39348333e-01   1.00098295e+00   2.06643801e-01   2.72483970e-01
   -6.16720897e-01  -6.20163747e-01   3.24141810e-01   1.67887489e-01
   -7.56698538e-01   3.56141767e-01   2.71140229e-01  -1.08080872e+00
   -2.23690887e-01  -3.74271879e-01   5.46045380e-02   3.18026222e-01
   -9.78090775e-01   4.93233850e-01  -3.66286097e-01   2.36993027e-01
    6.26367131e-01   3.75192645e-01   1.16749359e-01   1.01709753e+00
    5.18906550e-01   3.52882110e-01  -6.15105476e-01  -1.03866529e+00
   -8.35860783e-01  -2.08011326e-01   4.22804293e-01  -1.02866560e+00
    1.06044991e-01   1.08492244e-01  -1.85554143e-01   1.08571628e+00
    5.01310877e-01  -3.01454156e-01  -4.37192630e-03   3.89644156e-01
   -1.66619352e-01   1.19186498e+00   6.17610902e-01   2.74437363e-01
   -2.76533580e-01   4.06237242e-01  -2.81843435e-03   1.32365783e-01
    2.55922666e-01   5.00759809e-01   1.44169340e-01   1.30255953e+00
   -8.82066086e-01  -5.52073877e-01  -5.99628942e-01   1.70153608e-01
    1.87918741e-01  -2.01751717e-01   3.29979122e-02  -1.74852143e-01
   -1.40294835e+00  -4.29526556e-02  -8.02628308e-01  -3.98237594e-01
    2.91426680e-01   1.13477771e-01  -8.55613377e-01  -5.56004316e-01]]"
"[[ -6.11240075e-01  -1.42452010e-02   6.38606125e-02  -7.29866528e-01
   -3.02272891e-01  -1.19599577e+00   4.79378405e-01   3.85880263e-02
   -1.08799466e-01   5.69352280e-01   2.63598329e-01  -1.15585580e+00
    4.37769714e-02  -1.78606028e+00  -6.17215796e-02   7.39280895e-01
   -2.35372494e-01  -6.06429473e-01  -1.05144886e-01   2.64895430e-01
   -1.90899476e-01   7.48706448e-01  -4.26877882e-02  -8.76364038e-01
   -1.85879582e+00   5.91016612e-01]
 [  2.97050855e-01   2.24273323e-01  -3.61173704e-01   5.34390581e-01
    5.59368418e-01   4.80293778e-01  -3.01317274e-01  -2.63721486e-01
    3.38688490e-01   7.90060213e-02   5.86156816e-01   1.89927251e+00
    1.07143827e+00   4.54825315e-01   3.14013132e-01  -8.42181667e-02
    5.30512521e-01   2.86970234e-01  -5.00625916e-02   4.12752223e-01
   -6.76224774e-01   5.22128036e-01  -1.18981294e+00   5.21027017e-02
   -3.32729691e-01   2.58897037e-01]
 [ -1.56895152e-02   2.37101033e-01  -6.51935787e-02   2.95289197e-01
   -1.03157623e-01  -1.86197023e-01  -1.65574107e-01  -2.47395969e-01
   -3.49596696e-01  -3.85785650e-01   1.62128650e-01   3.93621928e-01
   -6.09953154e-01   2.05932631e-01  -8.07443805e-01   1.40649712e-02
    1.31638346e+00   3.46638923e-01   6.57573842e-01  -5.47989361e-01
   -3.37719226e-01   3.61965078e-01   9.54914954e-01   5.84835429e-01
   -1.95247553e+00   3.16082596e-01]
 [ -2.44408307e-01  -6.78771180e-01  -1.13982469e-01   1.44285535e-01
   -4.62594507e-01  -1.66040066e+00  -3.41572768e-01  -1.02597661e+00
    3.71457356e-01   6.18198184e-01   5.96397409e-02   5.45627237e-01
    2.26284554e-01  -8.48442221e-01  -3.19146996e-01  -1.36907517e+00
   -1.74660910e-01  -6.54254052e-01   5.45407685e-01  -1.89855988e+00
    6.39087370e-01   2.09849354e-01  -6.36222210e-01   8.64604143e-03
   -4.55782444e-01  -5.83002977e-01]
 [ -5.70354248e-01   5.76963428e-04  -6.71661922e-02  -3.85329596e-01
   -1.27258683e+00  -7.69572815e-01   3.55492563e-02  -1.02405670e+00
    1.20138641e+00   5.71354828e-01   9.13408995e-01   1.48933082e-01
    2.18751740e-01   2.21599596e-01  -1.38281679e+00   3.50244832e-01
   -6.43436012e-01  -6.75304187e-01   7.23060291e-01   9.87907573e-01
   -4.07083523e-01   4.37670608e-01   2.53569837e-01  -4.44457154e-01
    1.68358720e+00  -3.50694592e-01]
 [  8.96171985e-01   7.72500702e-02  -1.66194871e-01  -8.32817397e-01
    6.88131491e-01   8.81866874e-02   3.46276898e-01   2.15537728e-01
   -1.13102887e-02  -5.98564496e-01   3.81061594e-01   2.95486310e-01
    1.31347547e-01   3.92522168e-01  -8.45904380e-02  -7.94013951e-01
   -1.84330501e-01   5.96814434e-01   1.84685211e-01   5.84735061e-01
   -4.74154053e-01   3.51080311e-01  -6.16341601e-01   2.04081811e-01
   -1.20611626e+00  -1.94697764e-01]
 [  5.85812507e-01  -8.62233975e-01   3.58954185e-01  -3.09965711e-02
   -6.43644182e-02  -5.60859493e-01   4.37014013e-01   5.60325171e-01
   -1.04884478e+00  -9.52761540e-01  -6.78591571e-01  -9.20274576e-01
   -3.52888634e-01   7.44382849e-01  -3.83919464e-02  -4.83783450e-01
   -8.54724004e-01  -7.25051629e-02  -1.64913666e-01  -1.11582714e+00
   -3.68490293e-01   6.92390176e-01   2.04574147e-01   2.99762575e-01
    5.26138842e-01   2.15176204e+00]
 [ -9.37954435e-01  -1.10160696e+00  -6.05014441e-01  -5.49879883e-01
    1.44815460e+00  -8.26704109e-03   2.95869685e-01  -3.64293662e-01
   -8.11905607e-01  -1.09246458e+00   2.45283494e-01  -6.01659985e-01
   -1.59467852e-01  -5.12120519e-02   1.33272624e-01  -7.79423045e-01
    3.31942533e-01  -1.44121772e-01  -3.97635418e-01   5.70124876e-03
    6.20100377e-01   1.19272791e+00  -1.08550503e-01   2.20935037e-02
    4.24531401e-01  -5.02160346e-01]
 [ -1.05677518e+00  -3.29886868e-02  -9.56468840e-01  -3.69074495e-02
    5.49018504e-01   5.24643953e-01  -1.01410223e+00  -1.71534694e-01
    1.28948545e-01  -1.06966751e-01  -2.33438467e-01  -5.76151283e-01
   -4.03154612e-01   6.80934463e-01  -9.32696534e-01   1.80332243e-02
   -3.84478747e-01  -8.04631636e-01   1.78745827e-01  -7.02866940e-01
    7.07079853e-02  -5.93031486e-01  -8.55356011e-01   9.25896225e-03
   -2.74991251e-02   5.17006672e-01]
 [  3.00800966e-01  -1.10231480e+00  -3.64235293e-01   3.04771769e-01
   -6.12753131e-01  -4.22344829e-01  -2.41777901e-01  -2.67645392e-01
   -4.81484123e-02  -1.58594259e-01   1.38214011e-01  -6.86358351e-01
    5.16080512e-01   8.35499706e-01   5.28997553e-01  -9.57357428e-01
   -1.26315363e+00  -8.36682057e-01   3.39018535e-01  -7.86281386e-01
    8.83403585e-01   6.99223628e-01   1.38570830e+00  -3.35859967e-01
    5.03113742e-02  -1.03016652e+00]
 [ -7.79049406e-01  -6.91926611e-01   4.97453034e-01  -1.17763111e-01
    4.05267688e-02   1.62712457e-01  -5.21055728e-02  -4.80512008e-01
   -1.30630780e-01  -6.89779166e-01  -5.74313245e-01   3.62931703e-01
    3.83015646e-01   2.61680725e-02   4.15243130e-01   9.95508175e-02
    4.90264084e-01  -1.11341521e+00  -7.65715643e-01   5.14247609e-02
   -4.71392267e-01   1.62892658e-01   1.25366741e-01  -6.29063862e-01
   -5.39336235e-01  -1.37666478e-02]
 [  5.06762590e-01   4.46328940e-01  -3.57801558e-01  -5.71576863e-01
    2.04313572e-01   7.84745489e-01   6.79441938e-01   4.63310742e-01
   -4.83778774e-01  -1.96800345e-01   2.17419795e-01  -1.35148387e+00
    2.84233146e-01   8.63888993e-01   5.53032088e-01  -1.72172837e-01
    6.97614863e-01  -9.69114528e-02  -9.56659689e-01  -2.58859015e-01
    3.00030091e-01   6.45985583e-01   4.99095329e-02  -6.54206835e-01
    8.16854512e-02  -1.96321132e-01]
 [ -4.49861774e-01  -3.61092045e-01  -8.64215572e-01   3.46056830e-01
   -2.15048389e-01  -5.19209930e-03   9.68059383e-01  -2.58970868e-02
    3.57531997e-01   1.46847253e+00   5.46733032e-01  -2.31679366e-01
    2.94242677e-02  -3.87961149e-01   7.60797695e-01   6.18834320e-01
   -4.15594452e-01  -3.29886805e-01  -3.01255352e-01  -1.55146738e+00
    1.63493672e+00   5.14069841e-01   2.53985511e-01  -9.20046902e-02
   -3.61965380e-01  -1.34808902e-01]
 [  1.19354588e-01  -6.05287794e-01   3.02061732e-01   4.94682757e-02
    5.74911076e-01  -8.11027641e-01   3.14930640e-01  -3.92145289e-01
   -8.59798820e-01  -9.24067667e-01  -3.54760515e-01   7.47541659e-01
   -6.36835559e-01  -1.05729558e+00  -8.64941240e-01  -1.47406550e+00
   -5.04742529e-01  -3.78180982e-01   3.56316150e-01  -7.16321402e-01
   -1.13545371e+00  -1.52032391e-01  -1.28366751e+00  -4.07060130e-01
    2.20728571e-02  -4.22153710e-02]
 [  3.12260086e-01  -7.87251172e-01   3.87223302e-01   1.54205899e+00
   -7.96581099e-01   1.16300340e+00  -1.57169024e-01  -4.79756031e-01
   -6.05950648e-02  -6.10971290e-02  -5.08475986e-01   1.98660239e-01
   -2.03839880e-01   4.70464970e-01   1.18221382e+00   7.04026520e-01
   -2.79999647e-01  -5.26284291e-01   2.50569705e-01   1.10603093e-01
    6.04408217e-01   7.48220614e-01   9.05681066e-01  -2.74327991e-01
    4.09528624e-01  -6.14338355e-01]
 [  5.10296261e-02  -2.46453624e-01  -2.74075949e-02  -1.11628224e-01
    3.96297472e-02  -1.46418905e-01  -6.70779404e-01   3.93198874e-01
    4.22630091e-01  -3.14921088e-01   1.51074241e+00   8.05169384e-01
   -1.39556838e-01   5.07807522e-02   2.91378120e-02  -6.34486972e-01
    4.59008431e-01  -8.85981453e-01   1.14264417e+00  -4.71649827e-01
   -8.21182685e-02  -1.57206622e-01   7.53311297e-01   8.66961250e-01
    1.87157948e-01  -1.95863786e-01]
 [  6.20454799e-01  -2.34725926e-01  -1.07037493e-01   8.75526187e-02
   -2.80265403e-01   9.46456263e-01   7.95373319e-02   8.41687199e-01
   -5.23084821e-01   2.47324773e-01  -4.50231843e-01   3.76755333e-01
   -4.49916383e-01  -1.39120915e+00   4.44392796e-01  -4.29840350e-01
   -7.23593856e-01  -5.19189183e-02  -2.93992405e-01   8.83893836e-01
    6.37083006e-01   1.22275112e-02  -3.65308190e-01  -5.63229332e-01
   -2.05340076e-01  -6.99980005e-01]
 [ -7.20679221e-01   1.83344500e-02   9.09902816e-01  -4.12345903e-01
    1.55505687e-01  -6.74073782e-01  -2.67584164e-01   4.82312363e-02
   -1.83531526e-01   5.80368092e-01   3.40844128e-01   1.82061029e-01
    1.04130395e+00   1.87227155e+00   9.95987438e-01   2.52053207e-01
    1.56129599e-01  -1.29378484e-01  -1.09346846e+00  -9.61627937e-01
    8.85115336e-02  -2.87018590e-01   1.54598954e-01   2.64308283e-01
    1.61548828e-01   1.33526404e+00]
 [ -4.18837294e-01   3.57389036e-01  -7.19472629e-01   7.05769187e-01
    3.27112640e-01  -3.76866405e-01  -5.70324042e-01   3.58640988e-02
   -4.30046615e-01  -1.04629110e+00   8.36218278e-01  -2.53297015e-01
   -2.99700531e-01  -6.04631341e-01   9.58301556e-01  -3.55197936e-01
    2.24540788e-01  -1.64456795e-01   2.41007210e-01   3.51616308e-01
   -9.93622978e-01   4.27970418e-03  -1.03089466e-01   7.12692549e-01
   -4.22487425e-03   8.94245686e-01]
 [  5.65453400e-01  -6.66532813e-01  -4.91515510e-01   5.58246145e-01
   -6.81173387e-01  -6.81022416e-01  -1.01247946e+00  -6.41197202e-02
   -1.73657086e-01   3.89685118e-01  -7.72827732e-01   2.88621984e-01
   -4.15893992e-01   5.03232511e-01   6.46942667e-01   6.23296538e-01
    6.79745861e-01   2.49859058e-04   9.83640182e-01   5.03483428e-02
   -4.10938801e-01  -6.77417599e-01   3.87858133e-01   2.21062687e-01
    5.30630471e-02   9.09964119e-01]
 [ -2.55058343e-01  -1.94250312e-01   2.39829829e-01  -5.23406785e-01
    4.24995413e-02  -6.98523229e-02   2.38357179e-01  -2.73519048e-02
    1.03042844e+00   1.06878821e+00  -1.72489485e-01   2.30428625e-01
    5.40340297e-01   5.48041303e-01   6.55270382e-01  -1.14396915e+00
    8.64049133e-02  -1.09988020e+00  -4.66018730e-01  -1.02830529e-01
    4.64813931e-01  -9.49821905e-01   2.76988614e-02  -3.19195172e-01
   -8.31099076e-01   5.28800730e-01]
 [ -2.37809755e-01  -2.17728607e-01   3.16450516e-01  -6.29551644e-01
    3.52058542e-01   8.53402095e-01   1.85667784e-01  -8.06077437e-01
    4.53320903e-01   1.06367896e+00  -2.16660190e-01  -1.10829878e-01
   -2.44658221e-01  -1.44560422e-01   2.08194904e-01   5.43049981e-01
   -7.93292111e-01  -4.68049322e-01   1.01082280e+00   1.48274867e+00
   -4.37487257e-01  -4.62837751e-01   8.56258465e-01  -2.74075507e-01
    5.17152711e-01  -1.29064322e-01]
 [  9.77121055e-01  -8.42309050e-02  -2.66165554e-01   2.03392025e-01
   -6.33157888e-01  -5.06371647e-01   3.83814172e-01  -1.04155632e+00
   -5.15229552e-01   6.32202949e-01  -6.82036435e-01   1.79374994e-02
    1.56578263e-01  -3.76520364e-01   1.22842382e-01  -2.36311213e+00
    3.23664709e-01  -9.78618244e-02   1.10151251e+00  -8.13667560e-02
   -3.23383350e-02   2.21244519e-01  -2.70449282e-01   1.87405723e-01
   -7.20215657e-02   1.12437437e+00]
 [  1.58903987e+00  -2.14950882e-01  -3.54917926e-01   6.82943423e-01
    2.77595602e-01  -2.89154041e-02  -3.29127226e-01  -6.31646479e-01
   -3.07718963e-01   8.88817970e-01   5.73938481e-03  -5.35386439e-01
    1.71990155e+00   1.85923371e-01   1.13173596e-02  -1.16999985e+00
    6.78426757e-02   3.32967865e-01   2.40241485e-01   1.76827503e-02
    4.60217720e-01   5.25516002e-01   1.28926537e+00   9.65609433e-02
   -3.30910796e-01  -9.48429743e-01]
 [  1.95963393e-01  -5.34259907e-01  -1.21800070e+00  -7.67768023e-01
   -1.04714389e+00   6.69948873e-01   5.10021570e-01  -2.51342965e-01
    6.22493173e-01   1.80341066e-01  -2.65036932e-01  -5.48207371e-01
   -5.08617476e-01   5.11675526e-01  -8.22173895e-01   4.67187468e-01
   -1.62603162e+00  -1.39953427e+00  -3.34621494e-01   8.90716322e-01
   -6.31701191e-01   5.79574780e-01  -5.05186514e-01   1.87289303e-02
    9.51166978e-01   7.70671475e-02]
 [  1.03405666e-01  -3.77153544e-01  -9.09839421e-01  -1.91593206e-01
   -4.40419143e-01  -3.06497815e-01   8.76916539e-01   5.98814720e-01
    1.17805753e-01   3.51053129e-01   7.52291118e-02  -3.73802961e-01
   -4.38479057e-01  -5.46728958e-01   1.01481039e-01  -3.92787331e-01
    6.77112171e-01   7.32340857e-02   8.72694408e-02   2.91149426e-01
   -8.55820130e-01  -2.06713270e-01  -3.00707983e-01   5.51332849e-01
    2.24735192e-01  -1.38258084e-01]
 [  9.23287718e-01   1.50977830e-02  -4.26500396e-01  -1.38743339e-01
   -3.97777216e-01   3.02141792e-01   1.65272299e-01  -2.30312759e-01
   -4.10818277e-01   9.64723019e-02   3.90047148e-01   4.73164775e-01
   -2.13334567e-01   2.62726529e-01   1.83589033e-01   2.99444751e-01
    2.00649688e-02   5.08415422e-01  -1.05693727e-01   1.12773661e+00
    2.58623567e-02  -3.44125186e-01   4.38662096e-01  -1.65504251e-01
    8.64580066e-02  -9.69543490e-01]
 [  5.53836034e-01   4.44688239e-02   3.94407191e-01   3.95339930e-01
    3.48599482e-01   7.99076713e-01   4.77315507e-01  -1.44146396e-01
    8.27789617e-02  -6.21050380e-01  -2.23179871e-01   1.92290354e-02
    2.82240169e-01   1.57992072e-01   1.86163091e-02   6.24187811e-01
    2.12177307e-01  -7.63607229e-01   6.30962578e-02  -5.65549239e-01
    6.82662972e-01   2.10237068e-01  -3.24951278e-01   3.79744841e-01
    3.26611684e-01   4.00631045e-01]
 [  8.30230594e-01   2.60896790e-01  -5.44096614e-01  -4.22243017e-01
   -2.30235188e-01  -5.61028297e-01  -1.19201521e+00  -1.47011683e-01
   -8.15178150e-02  -3.18932399e-01   2.37770178e-01  -2.97296123e-01
    1.04597635e+00  -3.03051576e-01  -4.63021345e-01  -5.48284129e-01
   -6.09052699e-01  -7.00596371e-01  -1.10265619e+00   1.52601529e-01
   -8.07747989e-01   7.24656846e-02  -7.00959127e-01   8.54966491e-02
    6.17555763e-01  -1.86176985e-01]
 [  3.40690042e-01  -1.00897629e+00   1.38174556e+00  -6.75410606e-01
    7.43538560e-01  -9.68150882e-01  -6.96447605e-01   1.07757884e+00
    9.59767766e-01   2.05814301e-01  -3.77569226e-01  -4.27721987e-01
   -3.42425444e-01  -1.28854274e+00  -5.54977897e-01   7.46732557e-02
    3.91800326e-01  -3.76633283e-01  -4.10935163e-01  -1.35887787e-01
   -5.76146186e-02   3.52860678e-02  -8.15006874e-02  -2.56564145e-01
   -5.75809987e-01   1.44086134e+00]
 [  2.79496866e-01  -9.83871146e-01  -7.91501989e-01  -1.51292404e-01
   -9.13823410e-01  -3.60644923e-01   4.12567316e-01  -4.55911433e-01
   -1.14584974e-01   8.07896658e-02   1.05132852e+00   8.03435416e-01
    7.66453334e-01   1.37693851e-01  -3.49738880e-01  -1.53093770e-01
   -1.29388504e-01   1.82046129e-01  -4.28442427e-01   4.80173785e-01
    5.99853024e-01  -4.79669630e-01   1.99309985e-02  -4.13301586e-01
   -2.14357279e-01  -4.09645320e-01]
 [  1.31137203e-01  -8.35390360e-01  -5.23101623e-01  -2.24491566e-01
    4.90955824e-02  -4.29125654e-02  -1.01943438e-01   2.26555125e-01
   -2.73353806e-02  -2.03287942e-01   4.47173810e-01   4.89676843e-01
   -5.80120114e-01   7.32212817e-02  -3.29244427e-01   4.13920957e-01
    1.92001951e-01  -2.09279397e-01  -1.33371241e-01  -5.05738531e-01
   -3.20970799e-01  -5.67808691e-01   2.35407407e-01   3.45098240e-01
    2.67745893e-01   1.31407020e-01]
 [  8.29146317e-01   6.41324111e-02  -7.30830693e-02  -5.15044640e-01
    4.91878957e-02  -1.87761967e-01   1.32443745e-01   2.43686031e-01
   -7.30309009e-01   3.91581253e-01   6.94052727e-01  -1.07367901e+00
    1.06077621e+00  -3.74774023e-01  -6.83468944e-02   3.88650549e-01
   -7.67359258e-01   2.32386331e-01  -5.32177258e-01  -4.48491885e-01
    5.96293618e-01  -5.00939398e-01   1.01337219e+00   3.41666724e-02
   -1.45522018e-01  -6.90221947e-01]
 [ -8.00326254e-01  -2.68707463e-02   5.41214959e-01  -1.75261758e-01
    3.87183296e-01   5.52247599e-01   5.30525427e-01   6.91747311e-01
   -1.85104468e-01   2.88376425e-01   4.34751716e-01   1.51558471e-01
    6.67758101e-01   3.03456262e-01  -7.33559756e-01   5.05022124e-01
    5.46585342e-03   1.06201736e+00  -2.88524062e-01   9.83772401e-02
    1.53399641e-01   4.12040750e-01   1.06477807e-01   3.93182839e-01
    8.23916388e-02   1.02688110e-01]
 [ -7.80882028e-01   5.39266929e-01   1.01681431e+00   5.54802235e-01
    2.45720288e-01  -3.29497066e-01  -4.46705675e-01   1.23696775e+00
   -1.88492190e-01  -5.11442544e-02   7.35248083e-01   1.14719744e+00
   -2.82945913e-02   2.04949680e-01  -3.43422383e-01  -9.96262259e-01
    1.66859297e-01   3.90716934e-02   5.45146436e-01  -4.22432190e-01
   -1.16581265e+00   6.53724144e-01  -3.41783823e-01   7.79193413e-01
    8.32914635e-01   1.05372395e+00]
 [ -2.11864003e-01  -4.61649392e-01   6.41043117e-02  -6.37189380e-01
    6.24836904e-01   1.03640468e+00   3.46837694e-01  -7.00636534e-02
    3.41928592e-01  -3.78502208e-01   5.61419782e-01   4.11164509e-01
    7.68497979e-01  -7.92759788e-01  -1.59083548e-01   7.42138904e-01
   -9.55175891e-01  -5.55420233e-03  -3.47639040e-01   4.53317437e-02
   -4.27750744e-01   5.11496022e-01  -6.82188503e-01  -5.68520684e-01
   -1.98239787e-01  -2.49843820e-01]
 [ -2.93678126e-01   1.11091077e+00  -2.39950977e-01  -5.15448780e-01
   -7.21418892e-01   5.27251052e-01  -5.59061628e-01  -2.54085031e-01
    4.01106772e-01  -1.15903909e-01  -1.08401385e+00   1.52475179e-01
   -1.07494061e+00  -5.00970292e-01  -2.38444426e-01   8.63458278e-01
   -7.36825377e-01   1.73173320e-01   3.40571081e-02  -4.56019360e-01
    5.88041178e-01   8.00426379e-02   3.52225702e-01  -2.18324958e-01
   -1.74865288e-01  -1.05374499e-01]
 [ -1.57544666e-01   9.33571333e-02  -5.85773841e-01  -1.36934142e+00
   -7.74883666e-01   1.27937986e-03   1.70376960e-01  -2.04992758e-01
    7.87354409e-02  -5.33796707e-02  -7.37591625e-02  -1.19457402e+00
    4.35596097e-01  -9.38877033e-01  -8.15749043e-01   1.26252114e-01
   -9.46204605e-01   2.72778183e-01  -2.42737627e-01  -6.71253278e-01
    6.72461232e-01  -1.42137158e-01   1.16642247e-01  -1.47830841e-02
   -6.86461199e-01  -2.08676135e-01]
 [  1.45969711e+00   5.50598373e-01  -7.31870611e-01  -3.18528833e-01
    8.46601865e-01  -2.02498835e-01   5.81280795e-01   3.47894188e-01
   -5.79204585e-01   5.18115921e-01  -8.11893103e-01  -2.24170424e-01
    1.13092648e-01  -9.79357172e-03   7.01720880e-01  -7.55982804e-01
    2.63681988e-01   2.26104664e-01  -8.54493345e-01   2.72257980e-01
   -1.96146283e-01   5.13028166e-01  -1.11328973e-01  -1.12781046e+00
    4.99150476e-01   1.00102098e+00]
 [ -2.12627602e-01  -1.52522814e-01   8.63081414e-01   1.43131593e-01
    7.13892808e-02   2.00240246e-01   7.23344693e-01   8.17339718e-01
    4.27271075e-01  -2.29786384e-02   7.92499565e-02   7.49414444e-01
   -3.01351547e-01  -1.12369510e-01  -1.90320944e-01   1.47515826e-01
   -4.23440650e-02   8.07876705e-01  -2.04067277e-01  -8.67114372e-01
    1.34471731e+00   4.36186817e-01  -4.89207281e-01  -8.57314294e-01
    1.85795090e-01   4.68737658e-01]
 [  3.05278473e-01   4.29446280e-02  -4.93848640e-01  -4.78087306e-01
   -3.12158022e-01   1.96462849e-02  -3.29560142e-02   5.45251122e-01
   -3.73912959e-01  -2.76857864e-01   6.40281016e-01   4.01861912e-01
    2.38124686e-01   9.52073158e-01   6.53221824e-02  -8.96111359e-02
    5.88554002e-02   3.57915860e-02   3.75600489e-01   4.30929411e-01
   -1.05449235e+00  -8.30887678e-01   1.20514246e-02  -1.80780017e-01
   -8.08101755e-01   1.62680422e-01]
 [ -7.41258536e-01   2.22291084e-01  -7.09885643e-01  -5.25121982e-01
    8.25108416e-01   3.87289792e-01  -1.80404218e-02  -9.12859991e-03
    5.69863456e-02  -2.06914666e-01   1.28742524e-02  -9.98265790e-02
   -4.08202863e-01  -6.12401640e-01   1.12423034e-01  -1.30870032e+00
    2.87746547e-01   3.57061895e-01   3.90583396e-01  -4.13850177e-01
   -1.69095320e-01   4.36285863e-01  -4.29007266e-01  -1.10549218e-01
    5.73611432e-01   1.01244653e+00]
 [ -2.30229534e-01   1.09284723e-01   1.09607915e+00  -4.93129811e-02
   -8.80990861e-01  -2.16563062e-01   8.11606255e-01  -2.40025826e-01
   -9.61193485e-01  -6.48390577e-02   2.64108229e-01  -7.67615538e-01
    5.56040116e-01   2.70119221e-01   7.85991314e-01  -4.97836036e-01
    1.64029619e-01  -2.94305203e-01   7.36741878e-01  -1.21748171e-01
   -7.62746819e-01  -2.59242528e-01   2.91602876e-01   3.42829770e-01
    5.77840103e-01  -2.32265782e-01]
 [  9.05038616e-01   1.38290198e-01   2.98832654e-02   3.00713548e-01
    2.87066514e-01  -4.06805607e-01   3.51749363e-01   8.59479864e-01
    4.50659956e-01   5.62469666e-01   3.06473090e-01  -2.66236055e-01
    7.04028804e-02  -1.07734809e-01   5.65328452e-01  -4.96404738e-01
   -2.94681916e-03   1.84044305e-01  -2.50126400e-02   7.88264973e-01
   -5.11662790e-01  -4.38703742e-01  -5.96752009e-01   1.58205070e-01
   -5.10813567e-01  -4.61415710e-01]
 [  9.70916203e-01   1.98209514e-01  -5.11890462e-01   3.71689450e-01
    2.26912569e-01   4.42435477e-01  -5.31591716e-01   5.54512688e-01
   -4.90872574e-01  -1.28523668e-01  -3.64418519e-02   4.99477195e-01
    9.72808277e-01   3.79880209e-01   1.45366349e-02  -9.94801711e-02
   -1.11764194e+00  -8.87806860e-01  -1.03377213e-01   1.31717419e+00
    6.39039382e-01   2.29373079e-01   3.69058797e-01  -4.51690505e-01
   -1.46364885e-01   8.01181035e-01]
 [  1.24389278e+00  -2.67120752e-01   2.14450173e+00   7.10940313e-01
   -8.65707393e-01   4.88518044e-01  -1.61751338e-01  -9.20516464e-01
    2.80273681e-01  -2.05858328e-01   4.64530907e-01  -3.32014984e-01
    4.11972387e-01   7.69458529e-01  -7.24120418e-01  -7.20319794e-01
   -2.83069650e-01   8.72106909e-01  -6.63323035e-01   8.19909162e-01
    7.51557861e-01   5.99832954e-01   3.94821991e-01   6.73981575e-02
   -4.15437609e-01   2.20514692e-01]
 [ -5.03862857e-01  -5.80099176e-01  -4.92220719e-01  -1.82100979e-01
   -2.60451183e-01   6.21611738e-01  -5.13007012e-01  -9.86346389e-02
   -8.83721467e-02   3.16642514e-02  -4.87486931e-01   3.22031761e-01
    3.07297955e-02   1.05137656e-01  -1.68739960e-01   7.19138592e-01
   -5.45208074e-01  -2.55317512e-01   1.70019071e-01   4.12144532e-01
   -4.23178722e-01  -1.07166113e-01   9.46339702e-01  -1.19293799e+00
   -2.70151153e-01  -4.99684142e-01]
 [  2.47129559e-01  -1.01639821e+00  -1.27165788e+00   9.17921639e-01
   -9.98064799e-01   2.03114186e-01  -1.35300080e+00   5.09828830e-01
    4.08982297e-01   2.14076665e-01  -2.27136423e-02   1.52822622e-01
   -2.79440589e-01   1.15359288e-01  -7.61895819e-01  -7.34395751e-02
   -8.42065097e-01   6.81817401e-02  -6.89931795e-01   2.79836986e-01
    6.12832353e-01   2.60543340e-01  -6.67498142e-01   4.85403855e-01
    1.00236358e+00   1.38661781e-01]
 [ -1.27047159e+00  -2.72756411e-01   1.61657239e-01  -3.20844565e-01
   -3.26608831e-01  -6.43661717e-01  -3.84634166e-01  -4.35892388e-02
   -6.51737694e-01   4.40055536e-01  -1.74933411e+00  -8.52304833e-01
   -6.41639622e-01  -1.29162356e-01  -7.56601130e-01  -1.92258628e-01
    1.30866993e+00  -5.54675874e-01   1.23630273e-01  -5.80514593e-01
   -2.84595802e-01  -5.67689891e-01   6.48134930e-01  -1.43164932e+00
   -1.86683991e-01   6.00188714e-01]
 [  5.82117770e-01  -4.55698786e-01   6.48427386e-01  -1.28561633e-01
   -3.30827829e-01  -5.63939144e-01  -7.92760048e-01  -5.24566690e-01
   -8.81086157e-01  -3.28191692e-01   8.64454234e-01   5.19550569e-01
    1.58845181e-01   1.02109983e-01  -4.05298288e-02  -9.15515199e-02
    2.74912840e-01  -4.09817239e-01   1.87413043e-01  -5.55543170e-01
   -1.26178421e+00   4.59661446e-01   1.90566362e-01   4.12363837e-01
    5.68966308e-01  -5.77270194e-02]
 [ -5.82035654e-01   1.38399302e-01   4.91975478e-02  -1.28866461e-01
    1.32042382e+00   7.71055220e-01  -7.61890007e-01   7.46978336e-01
    4.73855405e-01   1.12529737e-01   1.10854288e+00   3.32280269e-01
   -5.51997223e-02   2.04768129e-02   8.88028314e-01  -6.07162082e-01
   -1.26801115e+00  -4.19480598e-01   4.51087450e-01   1.02102560e+00
   -2.85506013e-01  -4.32131968e-01   7.84068740e-01   3.31872745e-01
    1.45250420e+00  -2.75498813e-01]
 [ -8.85309727e-02  -8.69181529e-01  -5.65704380e-01   5.41793615e-01
   -9.74142611e-01   1.79651127e-01   2.97608732e-01  -3.57202357e-01
   -1.83314237e-01   7.65657555e-01   1.64752574e-01   1.39401692e+00
    6.48772505e-01   2.01932084e-01  -9.09625757e-01   1.28092099e-01
   -3.99499819e-01   1.01355131e-02   6.58425384e-01  -5.26501186e-02
    7.98732165e-01   1.30862472e-01  -1.95665925e-02  -2.27147838e-01
    2.71429068e-02  -7.59924925e-01]
 [  5.02947089e-01   7.28805009e-01   2.86385528e-01  -3.41638691e-01
    5.36188937e-01   5.84750466e-01  -8.56204333e-01  -2.71973912e-01
    6.79559168e-01   7.23053695e-01  -2.72210284e-01  -3.77428354e-02
    1.39629623e+00  -6.12971812e-01   3.92488810e-01  -7.46233482e-01
    6.94132495e-03  -9.63564515e-01   5.31526886e-01   2.32303871e+00
   -9.65709774e-01   6.87709375e-02   1.07265861e-01   1.19357515e+00
    9.97235268e-01   2.26956706e-01]
 [ -4.22065976e-01  -6.17011553e-02  -4.55563142e-01  -3.73589208e-01
    4.13754142e-01   2.18447976e-01  -8.96697074e-01  -1.44067812e-01
   -4.70301618e-01   1.79054979e-01  -1.38039520e-01   4.93301973e-01
    3.63790342e-01   1.87359105e-01   6.52285788e-02  -7.54643829e-01
    2.39151908e-01  -1.79513236e-01   4.24188815e-02   3.13065094e-01
    5.82044341e-01  -6.83986506e-01   3.78663644e-01  -6.13375462e-01
    3.12817169e-01   6.99728148e-01]
 [ -4.30479625e-01   5.82389696e-01   2.47799039e-01  -3.34337754e-01
    2.33312217e-01   6.52421556e-01  -1.93168445e-01  -1.30646033e-01
    4.63564660e-01  -4.17615334e-01  -1.63035478e-02   4.14759956e-01
    4.86536589e-01  -2.68809199e-01  -8.70552213e-01   1.09018074e-01
   -4.24619447e-01   3.93173919e-02   4.14883292e-01  -1.10649277e-01
   -8.07066189e-01  -5.79748883e-01  -6.16683709e-01   8.44133441e-02
   -5.81597475e-01  -7.27287077e-02]
 [ -9.57957711e-01  -5.21753123e-01  -8.68677955e-02  -7.76161923e-01
    3.04923806e-01  -1.77464643e-01   2.52711415e-01   6.72667336e-01
   -6.51667847e-01  -1.17308264e-01  -1.53893763e-01   2.47229966e-02
   -5.58428616e-01  -1.00021821e+00  -3.12226472e-01  -7.15127644e-01
    5.82322768e-01  -7.55805794e-01   8.30775982e-02   1.45115619e-02
   -5.33250900e-01  -1.22258305e+00  -7.69890397e-01  -3.63888330e-02
   -5.19248626e-02  -3.54247839e-01]
 [ -3.49544139e-01   7.73676558e-01  -5.79678813e-03  -1.29568772e+00
   -3.70145230e-01   1.12786128e-02   5.36478101e-01  -2.29071473e-01
   -1.34076561e-01   1.86912121e-01  -4.74231661e-01  -4.50314947e-01
    4.57915741e-01   4.14047656e-01  -3.04814816e-01  -2.33205885e-01
   -1.06831861e+00   2.02056190e-01   3.06749915e-01   6.78106445e-01
    2.47231111e-01   4.73385412e-01   8.10106969e-01   1.88468738e-01
   -9.55318458e-01  -8.34920673e-01]
 [ -1.42849639e+00  -8.36430648e-01   1.35307770e-01   2.07407078e-01
   -6.47297909e-01  -1.63761658e-01  -1.70106902e-01   1.21820476e+00
   -1.28458557e+00   6.49207777e-02   3.28285444e-01  -9.49362220e-02
   -4.67833118e-01   1.08140191e+00   1.16200938e-01  -1.54347176e+00
   -7.23402233e-02   1.40260609e-01  -1.20379050e-01   1.36213573e+00
    3.04557710e-01   4.67908842e-01  -7.53112982e-01   3.81264449e-01
    8.59934930e-01  -1.33156737e+00]
 [ -9.88680877e-02  -8.98905776e-01   4.93341434e-01   5.72297641e-01
    3.12599565e-01  -1.73036696e-01   1.54099954e-01   1.02269860e+00
   -5.77749952e-02   7.89429131e-02   6.87226246e-01   9.57904186e-01
    1.40568170e+00  -1.67345117e-01  -1.62922913e-01   3.21568164e-01
   -1.46866693e-02  -8.20562135e-01  -5.76842045e-01   1.27111750e-01
    2.48739878e-01  -2.02508679e-01   3.79527112e-02   1.50480906e-01
    1.90969540e-01  -7.01689687e-01]
 [  6.44529100e-02  -8.67787027e-01  -1.82081386e-01  -5.52319847e-02
    7.03858303e-01  -8.12632579e-01  -3.49099016e-01  -1.49062268e-01
   -5.86499743e-01   4.37840853e-02  -5.01476320e-01   4.34355115e-01
    3.28145713e-01  -1.41429323e-01  -4.71910769e-02  -2.63412880e-01
   -4.32631059e-01  -9.92610332e-02   4.76866124e-01  -4.83110961e-01
   -1.46284499e+00   4.40054220e-02   1.96540303e-01  -8.84495832e-01
    1.64003793e-01  -1.82594222e-02]
 [ -3.97565838e-01  -6.39577970e-01   9.34377678e-01  -3.03586183e-01
   -1.07441144e+00   3.17705891e-01   1.54209468e-01  -7.87890512e-01
    2.04245002e-01  -1.30352073e+00  -8.25498065e-01  -2.80045541e-01
   -2.81500449e-01  -9.09792875e-01   3.37069414e-01   1.59754202e-01
   -7.55268367e-02   1.09142633e-01  -9.55699341e-01  -1.32182508e+00
   -1.20933509e+00  -8.43398983e-01  -1.40257733e-01  -2.35441736e-01
    3.25372026e-01  -2.66274600e-01]
 [ -8.33868987e-01   5.01717494e-01  -1.35345525e-01   1.29181738e+00
   -1.27752230e-01   7.74412779e-01   6.08978100e-01   1.25295489e-01
   -7.55136616e-02   7.92812563e-01   3.24927892e-01  -2.05300214e-02
    1.27227587e-01   4.06275475e-01   1.06849505e+00   5.06499412e-01
    4.24027131e-01   5.26040516e-01   4.94094449e-01  -7.05657707e-02
    5.68253664e-01  -4.19452640e-01   6.85473113e-02  -2.10638332e-01
    9.62346253e-02  -9.91889628e-01]
 [  2.66107223e-01   3.58935763e-01   4.48217131e-02  -4.47909123e-01
    5.25853367e-01  -1.66565075e-01   6.03424855e-01  -6.16913253e-01
    8.04603102e-01  -3.15784615e-01   1.67122901e-01   7.22815937e-01
    5.80044240e-01  -9.72781782e-01  -1.03058789e-01  -2.01316811e-02
   -3.96088293e-02  -1.62602972e-01   1.12264569e-01  -7.09259388e-01
   -7.74787048e-02   5.50200101e-01   4.16342952e-01   2.56695704e-01
    3.12371825e-01   3.41653683e-01]
 [ -6.48096406e-01  -9.69858055e-01  -2.93585187e-02  -1.11515880e+00
   -8.35540191e-02  -6.94860506e-02   2.32859670e-01  -9.41791411e-02
    1.21884835e-01  -8.86576007e-01   9.11626649e-01   3.62304906e-01
   -1.54514882e-01  -8.62213659e-01  -5.64414269e-01   1.18349697e-01
   -4.47280052e-01   2.40528306e-01  -6.47199282e-01   1.02610006e+00
   -1.37420147e-01   8.49297265e-01   1.31699656e-01   1.06490517e+00
    4.73877916e-02  -1.55508082e-01]
 [  8.80005736e-01   1.98058846e-01  -2.95754969e-01   8.98683333e-01
    2.81866676e-01  -4.90869177e-01  -3.61160888e-02  -4.50432249e-01
   -2.69812196e-01   3.54965605e-01  -7.68912618e-01  -2.11076928e-01
    1.14452418e-03  -1.33067942e-01  -3.42485098e-01   3.14154594e-01
    8.36162776e-01  -2.47776478e-03   6.81419352e-01   8.83480455e-01
    1.16560635e-01  -3.38761302e-01   1.22172978e-01   2.64108868e-01
   -2.79634268e-01   3.01342532e-01]
 [  1.37732393e-01   9.17341133e-01   3.94261176e-01  -4.79783183e-01
   -5.67073106e-01   5.06348656e-01   5.21734714e-01   1.05123952e-01
    1.76032642e-02   2.52251047e-01   1.98418834e-01   1.64141880e-01
    2.37733481e-01   4.61944316e-01   1.15278420e-01  -5.80410421e-01
   -1.81497201e-01   9.59972015e-01   5.99714805e-01   4.44872346e-03
   -1.90697338e-01  -1.02623800e-01   4.57530609e-01   5.53627090e-01
   -8.69769632e-02   2.47091585e-01]
 [  1.00559353e+00   7.20978210e-01   1.48331901e-01   5.65341650e-01
   -2.21987818e-01   9.44077312e-01  -6.88413617e-01   1.90070011e-02
    5.04011378e-01   4.77942967e-01   8.39035544e-02  -4.19692026e-01
   -1.14115298e+00  -1.02086434e+00   6.83394998e-02   9.84708808e-01
   -5.86335049e-01   2.55409710e-01   1.20013009e+00   3.95917212e-01
   -1.43495779e+00  -4.99900965e-01  -7.43116455e-01  -1.24924460e-01
   -2.05870577e-02   1.17199564e-01]
 [ -7.73376220e-01  -7.23695682e-01  -4.32147726e-01   4.01225934e-01
    3.82398083e-02  -1.42935046e-01   1.70024167e-01   4.31498746e-01
    5.12812352e-01   9.68837547e-01   6.94820457e-01   2.34140756e-01
   -2.92100993e-01  -6.82773093e-01  -5.21793299e-01  -1.24943734e+00
   -9.50820801e-01  -5.68223242e-01   7.83187584e-01   3.16069075e-01
    4.08930889e-01   6.45149294e-01   1.08742132e+00   8.08927630e-01
    2.82294442e-01  -1.98309005e-01]
 [ -3.06903113e-01  -1.11713948e+00   5.60662466e-01  -8.62464461e-01
    6.93956573e-01  -4.08183062e-01   6.10369931e-01  -1.30227318e+00
   -1.29934622e-01   9.93331555e-01   2.37188735e-01  -6.04723186e-01
   -9.56435627e-01   3.87550578e-01  -6.26826203e-01   6.20532955e-02
    1.26352527e-01  -3.45303730e-01   1.48642350e-01   4.33145620e-01
   -2.34592327e-01   3.39242878e-01   2.29326926e-02   7.73355351e-01
    8.24490214e-01  -6.25373867e-01]
 [  9.08140078e-01   9.05897276e-01  -1.84593876e-01   5.06348444e-01
   -4.77502032e-01  -1.87632951e-01   3.66967327e-01   8.37856178e-01
    9.65797875e-01   7.25120856e-01   3.40497218e-01   5.12473439e-01
   -5.18824876e-02  -3.50734345e-02  -1.75853383e-01   7.20768972e-02
   -7.75814006e-01   6.02973276e-01  -2.28326746e-01  -9.14080869e-01
   -3.17350039e-01  -1.28203350e-02  -4.64618880e-01   2.11329826e-01
   -9.98722855e-01  -2.16112206e-01]
 [ -3.55088358e-01   7.49460328e-02  -1.36629490e+00  -4.98129689e-01
   -6.11029849e-01   5.81980687e-01  -2.45628309e-01  -6.50226782e-01
   -6.05388775e-01  -2.01932095e-01  -4.28020530e-01  -2.73829442e-01
   -4.31505664e-01  -9.44885729e-01   7.74435500e-02  -1.08421002e-01
   -1.94195296e-01   8.57119500e-01  -5.33175660e-01   2.36529439e-01
   -1.39626687e+00   1.59656352e-02  -2.55672404e-01  -1.22366818e+00
   -9.90301364e-02  -7.84023172e-01]
 [  7.25016685e-01  -5.88196918e-01  -4.35570494e-01  -1.08089761e+00
   -9.40358036e-01   3.11535971e-01   6.77063628e-01  -3.77092624e-01
    1.30927082e+00   1.47856508e+00   8.87348697e-02  -4.08025308e-01
   -4.43575232e-01  -4.42113376e-01  -5.52653704e-02   1.02828360e-01
    1.02808044e+00  -1.88035973e+00   9.90239260e-01   1.76776362e-01
    8.43365384e-01   4.53581701e-01   3.18504656e-01   3.02021389e-02
   -1.99624988e-01  -9.47186654e-02]
 [  6.20248814e-01   1.22431669e-01   1.78141072e+00   8.16555149e-02
    1.25046966e+00   2.25467715e-01  -9.63351452e-01   8.90681303e-02
    9.16679315e-01   3.68916874e-01  -2.23757511e-01  -7.54220282e-01
    7.16898307e-02  -1.50937480e+00   8.97624807e-01  -1.29244015e-01
   -9.62761567e-01  -1.40551347e-01   3.22151409e-01  -5.97133226e-01
    1.19670629e+00  -1.58346190e+00   4.03747084e-01   2.19208462e-02
    5.83680662e-01   1.11754980e+00]
 [  2.22067997e-01   1.26729444e-02  -1.84514168e-01   5.15478111e-02
    2.30401191e-01   1.83089100e-01   3.52232980e-01  -5.92647007e-01
   -2.75311047e-01  -1.61959216e-02   1.67628219e-01   3.44356913e-01
    1.05295932e+00   7.45800820e-01   5.70670480e-01   1.13718945e-01
   -5.30420645e-02   5.91549623e-01   7.65155990e-01  -9.76892194e-01
   -6.56550736e-01  -1.46321151e+00   1.19698142e-01   1.26605802e+00
    2.40569154e-01   3.52756982e-01]
 [ -3.66563814e-01  -3.99366589e-01   5.67231669e-01   5.54492648e-01
   -1.32344987e-01  -3.45609713e-01   6.34525024e-01  -6.60426685e-01
    4.24584174e-01   9.10867308e-01  -3.63198016e-01   7.37017008e-01
    1.03643377e+00  -5.01361004e-01  -1.51017544e+00  -2.14167767e-01
    7.48152612e-01  -5.18922171e-01  -1.77729663e-01  -4.20377302e-01
   -1.84584572e-01  -3.01585709e-01  -8.54591736e-01  -2.56323822e-01
   -1.79466303e-01   3.97626453e-01]
 [  2.62390859e-01   4.55968702e-01   1.88341131e-01  -5.04547977e-01
    3.70656687e-01  -3.50864990e-01   8.97933632e-01   2.91344684e-01
   -3.58112425e-01  -2.68476436e-01  -2.02448453e-01  -5.01656482e-01
   -8.45800756e-02   2.73918726e-01  -3.17866090e-01   3.26163087e-01
    8.82913061e-01  -3.16301468e-01  -6.05756262e-01   1.40486901e+00
    1.00800860e-01   7.43854936e-01  -2.19047234e-01  -2.66982043e-01
    4.74927204e-01  -1.60604081e+00]
 [  1.32813482e-01  -2.70479552e-01   7.34777498e-02  -4.60547648e-01
   -1.47308322e-01   8.22142340e-01   6.37380965e-01  -9.70057876e-01
    1.71235860e+00  -6.88447249e-01   2.21034182e-02  -2.10153021e-01
    7.33057268e-01  -4.67908889e-01   5.49570363e-01   9.91935581e-01
    4.67631386e-01  -3.25851454e-01   7.68481575e-01   1.59207338e-01
   -5.87334026e-01   2.71710530e-02   7.61492523e-01   7.14066963e-01
   -5.23099270e-01  -9.96163631e-01]
 [  1.11767460e+00   2.65004269e-01  -1.76244830e-01  -8.77113469e-02
    2.70195091e-01  -2.92949648e-02  -5.51994368e-02   9.23494603e-02
    7.50540258e-01   2.96630004e-01  -1.04349524e+00   2.48163024e-01
   -3.52293702e-01  -2.98288216e-01  -5.79446905e-01   4.78744869e-01
   -1.08350379e+00  -7.61180658e-01   1.74889552e-01   7.00987270e-01
    3.18318954e-01  -6.16529926e-01   6.70711593e-02   8.53445404e-01
   -1.09991770e-01  -3.71252168e-02]
 [ -2.79042422e-01  -3.67538767e-01  -3.53169394e-01  -8.13370879e-01
    4.20115041e-01  -9.38701072e-02   3.35971533e-01   1.46371163e-01
    4.36335655e-01   1.14345742e+00   6.45308547e-01  -2.36273479e-02
   -2.31083216e-01   1.25963729e-01  -4.76610068e-01   2.82896764e-01
    3.09880411e-01   5.46708754e-01  -7.25798937e-01  -5.15328093e-01
    8.88753328e-02  -9.42632310e-01  -5.24846182e-01   1.13319058e-02
    5.13553764e-01   1.44790267e-01]
 [  1.27175575e-01   1.38702911e-01  -1.74343491e-02   6.05875588e-01
   -1.19157816e+00  -1.08793968e+00  -4.57948589e-01  -8.18604827e-01
    1.32990290e-02  -9.07542433e-01  -7.03237269e-01   1.94089094e-01
   -5.06698138e-03   1.04676431e+00  -6.23847673e-01  -1.90994603e-01
    4.49787922e-01   2.35140856e-01  -7.67922554e-01  -8.20064876e-01
    1.82499748e-02   3.09158226e-01   1.19919576e-01  -1.05439062e+00
   -5.20262821e-01  -6.25707443e-02]
 [ -1.85545747e-01  -9.11880300e-01  -6.07341861e-01  -9.32124115e-02
   -2.53161854e-01  -3.74432112e-01   1.14659209e+00   1.28353254e-01
    5.20099697e-01  -3.79509804e-01   1.00567079e-01  -4.50226525e-01
    6.36017119e-01  -1.43749874e-01  -8.51992471e-01   7.90448884e-01
   -4.65842163e-01  -5.01702715e-01  -7.78703564e-01   1.20756524e+00
   -3.76892935e-01  -2.84962296e-01   3.97764695e-01  -4.21016533e-01
    3.35089737e-01  -6.40241279e-01]
 [ -3.58552394e-01   1.05070623e+00  -4.16369829e-01  -1.21898234e-01
    1.11931881e-01   2.09151276e-02  -7.19965289e-01   3.04119544e-01
   -1.09110296e-01  -6.18427316e-01   1.25767375e-01  -7.94606477e-02
   -5.07649743e-01   3.18192143e-01  -5.61905494e-01   1.15767906e+00
   -9.10067040e-01   5.44284158e-01  -1.82402211e-01  -4.41536392e-01
   -1.39629540e-01  -6.41290695e-01  -3.39790285e-01   3.36119734e-01
   -4.34589042e-01  -1.15398509e+00]
 [ -1.03063931e+00   2.41881864e-01   7.18390195e-01  -2.55683541e-01
   -2.87427905e-01   3.03169017e-01  -4.16257246e-01   9.79349417e-02
    6.13853409e-01  -7.91902210e-01  -8.51615366e-01   4.91091637e-01
    9.59711399e-02  -3.24007228e-01   3.68478592e-02  -8.46169305e-01
   -1.00241428e+00  -5.54830810e-02  -9.58098112e-01  -8.51869968e-01
    6.04905130e-03   2.43810901e-01  -2.17025148e-01  -2.21518413e-01
    6.88252251e-01  -1.23985081e+00]
 [ -2.30037949e-02  -5.70497758e-02   1.30595425e+00   6.75712440e-03
   -4.96913763e-01   4.99293421e-02  -7.17961295e-01  -3.35013394e-02
   -4.82931899e-01   5.46327868e-01  -3.44027217e-02  -3.49052290e-01
   -3.32267342e-01  -4.73125643e-01   8.40864095e-01   8.80617830e-01
   -6.06899858e-01   4.15192130e-02   3.25328355e-01  -3.97707698e-01
   -1.96915497e-01   8.95094249e-01   4.66041252e-01  -6.49242231e-01
    9.57969922e-01  -5.04940206e-01]
 [ -5.77744687e-01   4.84946585e-02  -1.21082839e+00   3.46483124e-01
   -7.25592046e-02   9.56891778e-01  -2.55269650e-01   2.50423572e-01
    6.55561866e-01   5.76769785e-01  -2.10379165e-01   6.38818584e-01
   -1.22752476e+00  -8.64110047e-01   4.37710691e-01  -4.68511479e-01
    1.02801672e+00   1.46486277e-01  -2.73587152e-01  -3.21685869e-02
    2.21160452e-01  -1.24796541e-01  -5.94982314e-02  -4.51851284e-01
   -4.52297506e-01  -8.06594194e-03]
 [  6.57641495e-01  -5.30251864e-01  -5.34249119e-01  -5.60990842e-01
   -1.24823176e-01  -2.50078695e-01   4.03644754e-01   1.10297698e+00
    5.77822583e-02  -6.02396653e-01  -5.49725396e-01  -2.41570487e-02
   -9.03982029e-01   2.87769916e-01  -1.12765151e+00   1.16581489e-01
   -6.06410135e-01  -1.24592165e+00  -1.42449405e-01  -7.76530942e-02
   -4.51739831e-01  -7.05294250e-01  -3.32563313e-02   3.93219731e-02
   -6.01604747e-01   1.07734209e+00]
 [ -4.58110761e-01   4.28983677e-02  -3.52618139e-01   4.70449633e-01
    2.77600789e-01   3.44443255e-01   4.74466125e-01   4.79373426e-01
   -2.46781275e-01   7.46533486e-02   1.09424773e+00   3.64222956e-01
   -6.20089180e-01   8.39710617e-01  -4.41912168e-01   8.19999923e-01
    8.69217402e-01  -3.18306467e-01  -9.08790988e-01   8.02552302e-01
    5.34473914e-01  -4.13635324e-01   5.13115618e-01   2.48350648e-01
    3.65028311e-01  -4.63640540e-01]
 [  1.90542409e-01   1.26871809e-01  -2.64593724e-01  -1.48312635e-01
   -9.94129948e-02  -2.52622821e-01  -8.97426427e-01  -5.90782447e-01
   -6.07569903e-01  -4.57026382e-01  -9.66952697e-02   8.79266858e-02
   -8.14934274e-01  -2.78194055e-01   3.98079351e-01  -6.24288876e-01
    4.92779840e-02  -5.96981989e-02   4.20598701e-01  -1.33054216e+00
   -5.21107836e-01  -8.23954960e-01  -6.34002864e-01   1.03974479e+00
   -8.41442725e-01  -4.49528932e-01]
 [  2.92511014e-01  -1.97887512e-01  -3.35712284e-01   2.98802868e-01
    5.30936996e-01   3.29874790e-01  -3.34381473e-01  -7.58441258e-01
    1.64948500e-01  -6.14230348e-01  -2.31704858e-01  -4.70931589e-01
